{"learner":{"attributes":{},"feature_names":[],"feature_types":[],"gradient_booster":{"model":{"gbtree_model_param":{"num_parallel_tree":"1","num_trees":"31"},"iteration_indptr":[0,1,2,3,4,5,6,7,8,9,10,11,12,13,14,15,16,17,18,19,20,21,22,23,24,25,26,27,28,29,30,31],"tree_info":[0,0,0,0,0,0,0,0,0,0,0,0,0,0,0,0,0,0,0,0,0,0,0,0,0,0,0,0,0,0,0],"trees":[{"base_weights":[-1.3392316E1,-3.7347205E2,1.1960306E3,-5.064505E2,1.27437E2,9.121262E1,2.1285738E2,-5.245977E2,-4.0080406E1,-1.938329E1,2.5241505E2,-8.957162E1,-1.2415468E1,1.4795709E2,-4.2366047E1,4.535792E1,2.3560051E1,6.29303E0,3.143603E1,-9.318398E1,3.8848548E0,-2.3276955E1,-6.339053E1,-1.1784197E1,-1.3569702E0],"categories":[],"categories_nodes":[],"categories_segments":[],"categories_sizes":[],"default_left":[0,0,0,0,0,0,0,0,0,0,0,0,0,0,0,0,0,0,0,0,0,0,0,0,0],"id":0,"left_children":[1,3,5,7,9,-1,-1,11,-1,13,15,-1,-1,17,19,-1,-1,-1,-1,21,-1,-1,23,-1,-1],"loss_changes":[1.2717389E8,1.5051814E7,1.805752E6,7.50676E5,8.856596E5,0E0,0E0,1.33492E5,0E0,9.472505E4,5.628625E3,0E0,0E0,5.4559375E3,7.172872E4,0E0,0E0,0E0,0E0,6.9580938E3,0E0,0E0,2.4029648E3,0E0,0E0],"parents":[2147483647,0,0,1,1,2,2,3,3,4,4,7,7,9,9,10,10,13,13,14,14,19,19,22,22],"right_children":[2,4,6,8,10,-1,-1,12,-1,14,16,-1,-1,18,20,-1,-1,-1,-1,22,-1,-1,24,-1,-1],"split_conditions":[2.184E3,1.323E2,1.96E2,4.7925E2,1.53425E2,9.121262E1,2.1285738E2,1.115E1,-4.0080406E1,1.288E2,1.15E1,-8.957162E1,-1.2415468E1,3E0,1.449E2,4.535792E1,2.3560051E1,6.29303E0,3.143603E1,7.278E2,3.8848548E0,-2.3276955E1,1.52125E2,-1.1784197E1,-1.3569702E0],"split_indices":[4,2,2,4,2,0,0,0,0,3,8,0,0,0,2,0,0,0,0,9,0,0,1,0,0],"split_type":[0,0,0,0,0,0,0,0,0,0,0,0,0,0,0,0,0,0,0,0,0,0,0,0,0],"sum_hessian":[2.9E2,2.24E2,6.6E1,1.77E2,4.7E1,6E0,6E1,1.65E2,1.2E1,2.2E1,2.5E1,1.64E2,1E0,2E0,2E1,2.1E1,4E0,1E0,1E0,1.1E1,9E0,3E0,8E0,7E0,1E0],"tree_param":{"num_deleted":"0","num_feature":"12","num_nodes":"25","size_leaf_vector":"1"}},{"base_weights":[5.9766207E0,-3.1284558E2,1.0110692E3,-4.1910745E2,9.215406E1,8.368113E1,1.7863211E2,-4.385076E2,-1.7647229E2,-3.2289997E1,2.079342E2,-4.4035522E2,-1.1360153E1,5.3988643E0,-3.2914433E1,-8.2416214E1,2.4704239E1,3.6460594E1,1.5042236E1,-7.906578E1,-6.717416E1,-1.9881239E1,-5.407428E1,5.6203814E0,3.1016803E0,-1.00313E1,-1.2416257E0],"categories":[],"categories_nodes":[],"categories_segments":[],"categories_sizes":[],"default_left":[0,0,0,0,0,0,0,0,0,0,0,0,0,0,0,0,0,0,0,0,0,0,0,0,0,0,0],"id":1,"left_children":[1,3,5,7,9,-1,-1,11,13,15,17,19,-1,-1,-1,21,23,-1,-1,-1,-1,-1,25,-1,-1,-1,-1],"loss_changes":[9.580916E7,9.8078E6,9.66072E5,7.69904E5,6.983054E5,0E0,0E0,8.457E4,5.9691125E4,7.0601766E4,5.52375E2,7.72E2,0E0,0E0,0E0,6.399336E3,4.4521973E1,0E0,0E0,0E0,0E0,0E0,1.6456543E3,0E0,0E0,0E0,0E0],"parents":[2147483647,0,0,1,1,2,2,3,3,4,4,7,7,8,8,9,9,10,10,11,11,15,15,16,16,22,22],"right_children":[2,4,6,8,10,-1,-1,12,14,16,18,20,-1,-1,-1,22,24,-1,-1,-1,-1,-1,26,-1,-1,-1,-1],"split_conditions":[2.1155E3,1.323E2,2.903E3,4.425E2,1.53425E2,8.368113E1,1.7863211E2,1.115E1,2.475E0,1.449E2,2.1493E3,5.75E1,-1.1360153E1,5.3988643E0,-3.2914433E1,7.607E2,1.516E2,3.6460594E1,1.5042236E1,-7.906578E1,-6.717416E1,-1.9881239E1,1.52125E2,5.6203814E0,3.1016803E0,-1.00313E1,-1.2416257E0],"split_indices":[4,2,4,4,2,0,0,0,0,2,11,3,0,0,0,9,2,0,0,0,0,0,1,0,0,0,0],"split_type":[0,0,0,0,0,0,0,0,0,0,0,0,0,0,0,0,0,0,0,0,0,0,0,0,0,0,0],"sum_hessian":[2.97E2,2.26E2,7.1E1,1.79E2,4.7E1,6E0,6.5E1,1.65E2,1.4E1,2.3E1,2.4E1,1.64E2,1E0,1E0,1.3E1,1.2E1,1.1E1,2.2E1,2E0,1E2,6.4E1,4E0,8E0,3E0,8E0,7E0,1E0],"tree_param":{"num_deleted":"0","num_feature":"12","num_nodes":"27","size_leaf_vector":"1"}},{"base_weights":[-5.77787E0,-2.5876758E2,8.462871E2,-3.4922424E2,8.064929E1,6.486944E1,1.4910893E2,-3.6954648E2,-2.0088535E2,-1.1437261E1,1.7704933E2,-2.1331545E1,-6.3218098E1,-2.1513164E2,-2.9450785E1,2.9616627E1,-2.5831987E1,3.1849411E1,1.3380914E1,-7.9626594E0,-2.2091513E2,4.939961E0,-1.2449911E1,-7.080193E1,2.1125032E1,-2.3390051E2,-1.8232866E1,-1.7177391E1,-4.613419E1,4.903785E0,2.7071183E0,-4.0879204E1,-1.0394539E1,-8.539143E0,-1.1360865E0],"categories":[],"categories_nodes":[],"categories_segments":[],"categories_sizes":[],"default_left":[0,0,0,0,0,0,0,0,0,0,0,0,0,0,0,0,0,0,0,0,0,0,0,0,0,0,0,0,0,0,0,0,0,0,0],"id":2,"left_children":[1,3,5,7,9,-1,-1,11,13,15,17,-1,-1,19,21,-1,23,-1,-1,-1,25,-1,-1,27,29,31,-1,-1,33,-1,-1,-1,-1,-1,-1],"loss_changes":[6.402584E7,7.059043E6,6.39348E5,4.714E5,4.3700516E5,0E0,0E0,4.2986E4,5.2279625E4,7.398326E4,9.563E3,0E0,0E0,1.10655E4,9.813422E3,0E0,5.4287055E4,0E0,0E0,0E0,5.9086875E3,0E0,0E0,5.0363203E3,6.2657715E1,5.71275E3,0E0,0E0,1.1186719E3,0E0,0E0,0E0,0E0,0E0,0E0],"parents":[2147483647,0,0,1,1,2,2,3,3,4,4,7,7,8,8,9,9,10,10,13,13,14,14,16,16,20,20,23,23,24,24,25,25,28,28],"right_children":[2,4,6,8,10,-1,-1,12,14,16,18,-1,-1,20,22,-1,24,-1,-1,-1,26,-1,-1,28,30,32,-1,-1,34,-1,-1,-1,-1,-1,-1],"split_conditions":[1.882E2,1.323E2,1.96E2,7.335E1,1.53425E2,6.486944E1,1.4910893E2,-7.9925E1,1.31975E2,8.69E1,1.9819E3,-2.1331545E1,-6.3218098E1,2.054E2,2.475E0,2.9616627E1,1.449E2,3.1849411E1,1.3380914E1,-7.9626594E0,1.288E2,4.939961E0,-1.2449911E1,7.607E2,1.516E2,1.2575E1,-1.8232866E1,-1.7177391E1,1.52125E2,4.903785E0,2.7071183E0,-4.0879204E1,-1.0394539E1,-8.539143E0,-1.1360865E0],"split_indices":[3,2,2,2,2,0,0,2,7,3,10,0,0,10,0,0,2,0,0,0,2,0,0,9,2,0,0,0,1,0,0,0,0,0,0],"split_type":[0,0,0,0,0,0,0,0,0,0,0,0,0,0,0,0,0,0,0,0,0,0,0,0,0,0,0,0,0,0,0,0,0,0,0],"sum_hessian":[2.95E2,2.28E2,6.7E1,1.8E2,4.8E1,5E0,6.2E1,1.57E2,2.3E1,2.5E1,2.3E1,2E0,1.55E2,2.1E1,2E0,1E0,2.4E1,2E1,3E0,1E0,2E1,1E0,1E0,1.2E1,1.2E1,1.7E1,3E0,4E0,8E0,3E0,9E0,1.6E1,1E0,7E0,1E0],"tree_param":{"num_deleted":"0","num_feature":"12","num_nodes":"35","size_leaf_vector":"1"}},{"base_weights":[7.8439584E0,-2.1770605E2,6.965799E2,-2.905849E2,8.188632E1,6.958933E1,1.26746994E2,-3.0314853E2,-1.3049994E2,-2.5834908E1,1.3136801E2,-5.4041916E1,-4.153768E1,4.520066E0,-1.4361974E2,1.46658125E1,-4.755185E1,1.4218234E2,2.2825638E1,-2.5357279E1,-6.0851784E0,7.090735E-1,2.7081964E0,-9.398312E0,-3.76249E0,2.5799942E1,1.5511624E2,4.536761E0,9.555756E-1,1.6990973E0,6.2233343E0,1.6536523E2,1.3778028E1,1.9859028E1,3.264697E1],"categories":[],"categories_nodes":[],"categories_segments":[],"categories_sizes":[],"default_left":[0,0,0,0,0,0,0,0,0,0,0,0,0,0,0,0,0,0,0,0,0,0,0,0,0,0,0,0,0,0,0,0,0,0,0],"id":3,"left_children":[1,3,5,7,9,-1,-1,11,13,15,17,-1,-1,-1,19,21,23,25,27,-1,-1,-1,-1,-1,-1,29,31,-1,-1,-1,-1,33,-1,-1,-1],"loss_changes":[4.6599628E7,4.958268E6,7.36104E5,3.26486E5,2.4325416E5,0E0,0E0,6.8006E4,3.4733203E4,1.3890663E4,3.3142812E4,0E0,0E0,0E0,3.02475E3,1.3193359E1,7.41959E2,3.8145812E4,1.1571338E2,0E0,0E0,0E0,0E0,0E0,0E0,3.174026E2,5.5759375E3,0E0,0E0,0E0,0E0,4.762E3,0E0,0E0,0E0],"parents":[2147483647,0,0,1,1,2,2,3,3,4,4,7,7,8,8,9,9,10,10,14,14,15,15,16,16,17,17,18,18,25,25,26,26,31,31],"right_children":[2,4,6,8,10,-1,-1,12,14,16,18,-1,-1,-1,20,22,24,26,28,-1,-1,-1,-1,-1,-1,30,32,-1,-1,-1,-1,34,-1,-1,-1],"split_conditions":[2.1905E2,1.38E2,2.0685E2,4.7925E2,1.23775E3,6.958933E1,1.26746994E2,1.5575E2,2.475E0,1.147E2,2.693E2,-5.4041916E1,-4.153768E1,4.520066E0,1.7685E2,1.52225E2,1.509E2,8.9E1,1.19E1,-2.5357279E1,-6.0851784E0,7.090735E-1,2.7081964E0,-9.398312E0,-3.76249E0,1.35E1,1.15E1,4.536761E0,9.555756E-1,1.6990973E0,6.2233343E0,9.06E1,1.3778028E1,1.9859028E1,3.264697E1],"split_indices":[6,2,2,4,4,0,0,4,0,1,1,0,0,0,1,6,1,1,0,0,0,0,0,0,0,0,8,0,0,0,0,1,0,0,0],"split_type":[0,0,0,0,0,0,0,0,0,0,0,0,0,0,0,0,0,0,0,0,0,0,0,0,0,0,0,0,0,0,0,0,0,0,0],"sum_hessian":[2.98E2,2.25E2,7.3E1,1.81E2,4.4E1,1.2E1,6.1E1,1.67E2,1.4E1,1.4E1,3E1,1.3E2,3.7E1,1E0,1.3E1,5E0,9E0,2.7E1,3E0,1.2E1,1E0,1E0,4E0,6E0,3E0,3E0,2.4E1,2E0,1E0,2E0,1E0,2E1,4E0,9E0,1.1E1],"tree_param":{"num_deleted":"0","num_feature":"12","num_nodes":"35","size_leaf_vector":"1"}},{"base_weights":[-9.775366E-2,-1.7814156E2,5.908027E2,-2.398436E2,5.952332E1,5.05249E1,1.0354634E2,-2.540676E2,-1.3046605E2,-7.9876685E0,1.2736713E2,-5.2633984E1,-2.3940814E2,-1.40034E2,-2.000173E1,1.1294967E2,-2.3414814E1,1.4837073E1,2.546072E1,-1.6040144E1,-4.0957355E1,-3.7551334E0,-1.448268E2,4.135859E0,-9.2363E0,4.477945E0,2.432422E1,-5.5236465E1,1.0358073E1,-1.494044E2,-4.91744E0,-1.583263E1,-3.8343822E1,1.2547019E1,-1.1662287E0,-2.6992235E1,-1.2675122E1,-8.028843E0,-1.3209702E1,1.2049539E0,2.4911654E0,-2.646016E0,-5.222748E-1],"categories":[],"categories_nodes":[],"categories_segments":[],"categories_sizes":[],"default_left":[0,0,0,0,0,0,0,0,0,0,0,0,0,0,0,0,0,0,0,0,0,0,0,0,0,0,0,0,0,0,0,0,0,0,0,0,0,0,0,0,0,0,0],"id":4,"left_children":[1,3,5,7,9,-1,-1,11,13,15,17,-1,19,21,23,25,27,-1,-1,-1,-1,-1,29,-1,-1,-1,-1,31,33,35,-1,-1,37,39,-1,-1,-1,-1,41,-1,-1,-1,-1],"loss_changes":[3.1351474E7,3.3724255E6,1.89568E5,2.50006E5,2.2086708E5,0E0,0E0,5.6156E4,2.1508156E4,4.928764E4,8.482875E3,0E0,6.1035E3,8.671969E3,5.8873057E3,4.0606602E3,2.5290451E4,0E0,0E0,0E0,0E0,0E0,6.28925E3,0E0,0E0,0E0,0E0,4.1110156E3,5.383523E2,1.491125E3,0E0,0E0,1.60921E3,2.2651733E1,0E0,0E0,0E0,0E0,4.768091E1,0E0,0E0,0E0,0E0],"parents":[2147483647,0,0,1,1,2,2,3,3,4,4,7,7,8,8,9,9,10,10,12,12,13,13,14,14,15,15,16,16,22,22,27,27,28,28,29,29,32,32,33,33,38,38],"right_children":[2,4,6,8,10,-1,-1,12,14,16,18,-1,20,22,24,26,28,-1,-1,-1,-1,-1,30,-1,-1,-1,-1,32,34,36,-1,-1,38,40,-1,-1,-1,-1,42,-1,-1,-1,-1],"split_conditions":[2.184E3,1.323E2,2.903E3,7.335E1,1.53425E2,5.05249E1,1.0354634E2,2.795E2,1.31975E2,1.288E2,1.003E2,-5.2633984E1,-7.9925E1,2.054E2,2.475E0,3E0,1.449E2,1.4837073E1,2.546072E1,-1.6040144E1,-4.0957355E1,-3.7551334E0,1.2775E1,4.135859E0,-9.2363E0,4.477945E0,2.432422E1,9.3E0,1.27775E3,1.288E2,-4.91744E0,-1.583263E1,1.509E2,8.78E2,-1.1662287E0,-2.6992235E1,-1.2675122E1,-8.028843E0,1.1225E1,1.2049539E0,2.4911654E0,-2.646016E0,-5.222748E-1],"split_indices":[4,2,4,2,2,0,0,9,7,3,1,0,2,10,0,0,2,0,0,0,0,0,0,0,0,0,0,8,4,2,0,0,1,10,0,0,0,0,0,0,0,0,0],"split_type":[0,0,0,0,0,0,0,0,0,0,0,0,0,0,0,0,0,0,0,0,0,0,0,0,0,0,0,0,0,0,0,0,0,0,0,0,0,0,0,0,0,0,0],"sum_hessian":[2.96E2,2.28E2,6.8E1,1.81E2,4.7E1,5E0,6.3E1,1.59E2,2.2E1,2.4E1,2.3E1,2.9E1,1.3E2,2E1,2E0,2E0,2.2E1,1E1,1.3E1,2E0,1.28E2,1E0,1.9E1,1E0,1E0,1E0,1E0,1.1E1,1.1E1,1.8E1,1E0,2E0,9E0,1E1,1E0,1.5E1,3E0,6E0,3E0,4E0,6E0,2E0,1E0],"tree_param":{"num_deleted":"0","num_feature":"12","num_nodes":"43","size_leaf_vector":"1"}},{"base_weights":[-5.675557E0,-1.5473451E2,4.5791428E2,-2.0312212E2,4.548027E1,3.4802845E1,8.4920685E1,-2.1817561E2,-1.3559322E2,-2.4901241E1,8.150107E1,-2.3423734E2,-1.8496616E2,-1.4195445E2,-1.8301575E1,1.1094951E1,-4.227178E1,2.1623251E1,9.26117E1,-4.4167942E1,-3.4937202E1,-7.976444E0,-3.1742157E1,-3.4359477E0,-1.4503116E2,3.7843106E0,-8.451212E0,5.463834E-1,2.0448165E0,-1.2377212E1,-2.7396463E1,7.2550664E0,4.2723083E-1,1.2242028E0,9.97256E1,-1.4975449E2,-8.139549E0,-3.0118256E1,-4.7788116E-1,-1.0671017E0,8.082402E-1,1.7883892E1,8.062318E0,-2.7314302E1,-8.936861E1,-5.705265E0,-2.2430787E0,-3.2735946E0,-1.6633575E1],"categories":[],"categories_nodes":[],"categories_segments":[],"categories_sizes":[],"default_left":[0,0,0,0,0,0,0,0,0,0,0,0,0,0,0,0,0,0,0,0,0,0,0,0,0,0,0,0,0,0,0,0,0,0,0,0,0,0,0,0,0,0,0,0,0,0,0,0,0],"id":5,"left_children":[1,3,5,7,9,-1,-1,11,13,15,17,19,21,23,25,27,29,31,33,-1,-1,-1,-1,-1,35,-1,-1,-1,-1,-1,37,-1,39,-1,41,43,-1,45,-1,-1,-1,-1,-1,-1,47,-1,-1,-1,-1],"loss_changes":[2.0732418E7,2.2083945E6,6.66979E5,1.564445E5,1.1611341E5,0E0,0E0,3.5618E4,2.426225E4,1.0473374E4,1.795586E4,1.7127E4,4.0605E3,9.804E3,4.9289976E3,5.4761963E0,3.001795E3,2.6592832E3,1.4471906E4,0E0,0E0,0E0,0E0,0E0,7.9728125E3,0E0,0E0,0E0,0E0,0E0,5.175825E2,0E0,1.4588474E2,0E0,1.5952812E3,6.0788125E3,0E0,2.321289E1,0E0,0E0,0E0,0E0,0E0,0E0,2.2757344E3,0E0,0E0,0E0,0E0],"parents":[2147483647,0,0,1,1,2,2,3,3,4,4,7,7,8,8,9,9,10,10,11,11,12,12,13,13,14,14,15,15,16,16,17,17,18,18,24,24,30,30,32,32,34,34,35,35,37,37,44,44],"right_children":[2,4,6,8,10,-1,-1,12,14,16,18,20,22,24,26,28,30,32,34,-1,-1,-1,-1,-1,36,-1,-1,-1,-1,-1,38,-1,40,-1,42,44,-1,46,-1,-1,-1,-1,-1,-1,48,-1,-1,-1,-1],"split_conditions":[1.71075E2,1.323E2,1.96E2,6.995E1,1.23775E3,3.4802845E1,8.4920685E1,1.6625E2,1.31975E2,1.147E2,1.24E1,3.55E1,2.365E2,2.054E2,2.475E0,1.52225E2,9.2825E2,1.12E1,8.8275E1,-4.4167942E1,-3.4937202E1,-7.976444E0,-3.1742157E1,-3.4359477E0,1.2575E1,3.7843106E0,-8.451212E0,5.463834E-1,2.0448165E0,-1.2377212E1,1.52075E2,7.2550664E0,1.21E1,1.2242028E0,1.3775E1,5.7675E2,-8.139549E0,9.78E2,-4.7788116E-1,-1.0671017E0,8.082402E-1,1.7883892E1,8.062318E0,-2.7314302E1,4.875E0,-5.705265E0,-2.2430787E0,-3.2735946E0,-1.6633575E1],"split_indices":[2,2,2,2,4,0,0,5,7,1,0,6,11,10,0,6,5,0,1,0,0,0,0,0,0,0,0,0,0,0,1,0,0,0,0,5,0,4,0,0,0,0,0,0,0,0,0,0,0],"split_type":[0,0,0,0,0,0,0,0,0,0,0,0,0,0,0,0,0,0,0,0,0,0,0,0,0,0,0,0,0,0,0,0,0,0,0,0,0,0,0,0,0,0,0,0,0,0,0,0,0],"sum_hessian":[2.98E2,2.26E2,7.2E1,1.82E2,4.4E1,1.1E1,6.1E1,1.47E2,3.5E1,1.5E1,2.9E1,9.5E1,5.2E1,3.3E1,2E0,5E0,1E1,5E0,2.4E1,4.6E1,4.9E1,1E0,5.1E1,1E0,3.2E1,1E0,1E0,1E0,4E0,2E0,8E0,2E0,3E0,2E0,2.2E1,3E1,2E0,7E0,1E0,1E0,2E0,1.9E1,3E0,2.4E1,6E0,5E0,2E0,1E0,5E0],"tree_param":{"num_deleted":"0","num_feature":"12","num_nodes":"49","size_leaf_vector":"1"}},{"base_weights":[3.5976925E-1,-1.2969614E2,3.9052277E2,-1.6844934E2,4.0950188E1,1.9839986E2,7.2593056E1,-1.7804472E2,-9.626194E1,-1.1281912E0,7.7589134E1,1.1169006E2,3.772551E1,-3.7052074E1,-1.6815291E2,-1.0272949E2,-1.6745932E1,2.073653E1,-1.3382559E1,3.4806368E0,1.3473284E1,1.4749554E0,2.299666E1,-2.900523E1,-1.6776384E1,-3.14389E0,-1.05860085E2,3.462645E0,-7.732857E0,-3.548072E1,7.923273E0,-6.3121247E0,-1.111406E2,-8.303245E0,-3.1334999E0,9.864306E0,-9.7640014E-1,-7.66895E0,-1.976337E1,5.811135E-1,1.8782476E0],"categories":[],"categories_nodes":[],"categories_segments":[],"categories_sizes":[],"default_left":[0,0,0,0,0,0,0,0,0,0,0,0,0,0,0,0,0,0,0,0,0,0,0,0,0,0,0,0,0,0,0,0,0,0,0,0,0,0,0,0,0],"id":6,"left_children":[1,3,5,7,9,11,-1,13,15,17,19,21,-1,-1,23,25,27,-1,29,-1,-1,-1,-1,-1,-1,-1,31,-1,-1,33,35,-1,37,-1,-1,39,-1,-1,-1,-1,-1],"loss_changes":[1.5425779E7,1.5146828E6,4.48158E5,1.11697E5,6.638097E4,3.7599375E3,0E0,2.76975E4,1.0622266E4,3.3313164E4,5.651406E2,1.09739375E4,0E0,0E0,6.29E3,3.8438906E3,4.126679E3,0E0,9.697518E3,0E0,0E0,0E0,0E0,0E0,0E0,0E0,3.4948281E3,0E0,0E0,1.3777002E3,3.4846088E2,0E0,1.172E3,0E0,0E0,3.8566772E1,0E0,0E0,0E0,0E0,0E0],"parents":[2147483647,0,0,1,1,2,2,3,3,4,4,5,5,7,7,8,8,9,9,10,10,11,11,14,14,15,15,16,16,18,18,26,26,29,29,30,30,32,32,35,35],"right_children":[2,4,6,8,10,12,-1,14,16,18,20,22,-1,-1,24,26,28,-1,30,-1,-1,-1,-1,-1,-1,-1,32,-1,-1,34,36,-1,38,-1,-1,40,-1,-1,-1,-1,-1],"split_conditions":[1.8425E3,1.38E2,3.37275E3,7.335E1,1.4125E3,1.841E2,7.2593056E1,2.772E2,1.263E2,8.69E1,3E0,8.9E1,3.772551E1,-3.7052074E1,2.1175E2,2.054E2,2.475E0,2.073653E1,1.449E2,3.4806368E0,1.3473284E1,1.4749554E0,2.299666E1,-2.900523E1,-1.6776384E1,-3.14389E0,3.05E2,3.462645E0,-7.732857E0,1.499E2,1.27775E3,-6.3121247E0,5.4E0,-8.303245E0,-3.1334999E0,8.752E2,-9.7640014E-1,-7.66895E0,-1.976337E1,5.811135E-1,1.8782476E0],"split_indices":[5,2,4,2,4,2,0,9,7,3,0,1,0,0,4,10,0,0,2,0,0,0,0,0,0,0,4,0,0,1,4,0,8,0,0,10,0,0,0,0,0],"split_type":[0,0,0,0,0,0,0,0,0,0,0,0,0,0,0,0,0,0,0,0,0,0,0,0,0,0,0,0,0,0,0,0,0,0,0,0,0,0,0,0,0],"sum_hessian":[3.02E2,2.27E2,7.5E1,1.85E2,4.2E1,1.3E1,6.2E1,1.62E2,2.3E1,2E1,2.2E1,4E0,9E0,2.8E1,1.34E2,2.1E1,2E0,1E0,1.9E1,1E0,2.1E1,1E0,3E0,1.28E2,6E0,1E0,2E1,1E0,1E0,9E0,1E1,2E0,1.8E1,4E0,5E0,9E0,1E0,2E0,1.6E1,2E0,7E0],"tree_param":{"num_deleted":"0","num_feature":"12","num_nodes":"41","size_leaf_vector":"1"}},{"base_weights":[2.5036478E0,-1.077436E2,3.3321155E2,-1.4297618E2,1.9566872E1,1.823133E2,6.2115044E1,-1.5523895E2,-1.0653764E2,-2.079228E1,6.2474E1,1.00361534E2,3.6253014E1,-2.781849E1,-1.236789E2,-1.1025115E2,-1.532253E1,-5.5580063E1,-5.050463E0,6.5441956E1,5.316531E0,1.3495826E0,1.993392E1,-2.150819E1,-3.271068E0,-2.8766618E0,-1.1198769E2,3.16832E0,-7.0755653E0,-1.0598409E1,-3.9994788E0,-1.9087084E1,6.8931775E0,3.1847816E0,1.1362911E1,-8.786484E1,-1.23921906E2,-2.3300362E1,1.242627E0,8.633563E0,-8.934079E-1,-1.6765049E1,-6.8311424E0,-5.124057E0,-2.1482826E1,-8.435928E-1,-4.285901E0,9.171495E0,3.2233492E-1,9.0668184E-1,1.8997957E0],"categories":[],"categories_nodes":[],"categories_segments":[],"categories_sizes":[],"default_left":[0,0,0,0,0,0,0,0,0,0,0,0,0,0,0,0,0,0,0,0,0,0,0,0,0,0,0,0,0,0,0,0,0,0,0,0,0,0,0,0,0,0,0,0,0,0,0,0,0,0,0],"id":7,"left_children":[1,3,5,7,9,11,-1,13,15,17,19,21,-1,-1,23,25,27,29,31,33,-1,-1,-1,-1,-1,-1,35,-1,-1,-1,-1,37,39,-1,-1,41,43,45,-1,47,-1,-1,-1,-1,-1,-1,-1,49,-1,-1,-1],"loss_changes":[1.0791494E7,9.9857325E5,2.926235E5,6.1211E4,8.615204E4,1.6631094E4,0E0,1.36915E4,1.42308125E4,1.3957491E4,1.7582031E2,8.439027E3,0E0,0E0,6.7597812E3,5.39825E3,3.4549595E3,2.676504E2,3.3168892E3,1.1974219E2,0E0,0E0,0E0,0E0,0E0,0E0,1.778625E3,0E0,0E0,0E0,0E0,1.1712639E3,2.7794647E2,0E0,0E0,5.2662656E3,2.3886562E3,1.5521973E2,0E0,1.8853088E1,0E0,0E0,0E0,0E0,0E0,0E0,0E0,9.61322E0,0E0,0E0,0E0],"parents":[2147483647,0,0,1,1,2,2,3,3,4,4,5,5,7,7,8,8,9,9,10,10,11,11,14,14,15,15,16,16,17,17,18,18,19,19,26,26,31,31,32,32,35,35,36,36,37,37,39,39,47,47],"right_children":[2,4,6,8,10,12,-1,14,16,18,20,22,-1,-1,24,26,28,30,32,34,-1,-1,-1,-1,-1,-1,36,-1,-1,-1,-1,38,40,-1,-1,42,44,46,-1,48,-1,-1,-1,-1,-1,-1,-1,50,-1,-1,-1],"split_conditions":[1.71075E2,1.288E2,2.0685E2,1.64E2,1.4125E3,2.184E3,6.2115044E1,7.59E1,1.31975E2,7.607E2,1.3775E1,8.9E1,3.6253014E1,-2.781849E1,2.325E0,2.054E2,2.475E0,1.2775E1,1.449E2,3E0,5.316531E0,1.3495826E0,1.993392E1,-2.150819E1,-3.271068E0,-2.8766618E0,9.3E0,3.16832E0,-7.0755653E0,-1.0598409E1,-3.9994788E0,1.52125E2,1.27775E3,3.1847816E0,1.1362911E1,4.254E2,4.91E1,7.706E2,1.242627E0,1.288E3,-8.934079E-1,-1.6765049E1,-6.8311424E0,-5.124057E0,-2.1482826E1,-8.435928E-1,-4.285901E0,9.5E0,3.2233492E-1,9.0668184E-1,1.8997957E0],"split_indices":[2,2,2,4,4,4,0,3,7,9,0,1,0,0,0,10,0,0,2,0,0,0,0,0,0,0,8,0,0,0,0,1,4,0,0,10,6,10,0,5,0,0,0,0,0,0,0,8,0,0,0],"split_type":[0,0,0,0,0,0,0,0,0,0,0,0,0,0,0,0,0,0,0,0,0,0,0,0,0,0,0,0,0,0,0,0,0,0,0,0,0,0,0,0,0,0,0,0,0,0,0,0,0,0,0],"sum_hessian":[2.94E2,2.21E2,7.3E1,1.73E2,4.8E1,1.4E1,5.9E1,1.27E2,4.6E1,2.5E1,2.3E1,5E0,9E0,9.7E1,3E1,4.4E1,2E0,7E0,1.8E1,2E1,3E0,1E0,4E0,2.9E1,1E0,1E0,4.3E1,1E0,1E0,5E0,2E0,8E0,1E1,1E0,1.9E1,1.7E1,2.6E1,7E0,1E0,9E0,1E0,1.3E1,4E0,1E0,2.5E1,1E0,6E0,8E0,1E0,4E0,4E0],"tree_param":{"num_deleted":"0","num_feature":"12","num_nodes":"51","size_leaf_vector":"1"}},{"base_weights":[4.2967196E0,-8.915198E1,2.797325E2,-1.1989103E2,2.2062094E1,1.5852583E2,5.170568E1,-1.3293588E2,-9.97613E1,-2.2958797E1,4.5950394E1,9.964453E1,3.174043E1,-2.6698957E1,-1.1750389E2,-1.0384665E2,-5.307639E1,-7.4467463E0,-8.885635E0,-2.6380814E1,5.4062878E1,1.9351212E1,1.2348658E0,-2.0141047E1,-4.447424E0,-9.804003E0,-1.08272675E2,-1.2409375E1,4.455607E0,-2.9554293E0,2.5110881E0,-8.54664E0,-1.6581827E0,6.209025E1,1.881719E1,-1.8616867E1,-2.9930284E0,2.8990116E0,-1.7628317E0,5.937317E0,-1.2427047E0,-8.1746614E-1,3.946295E-1,9.75421E1,5.2380836E1,9.376122E-1,4.6605024E0,1.1171477E0,2.8906435E-1,1.1661923E0,2.133208E1,3.977999E0,9.504866E0],"categories":[],"categories_nodes":[],"categories_segments":[],"categories_sizes":[],"default_left":[0,0,0,0,0,0,0,0,0,0,0,0,0,0,0,0,0,0,0,0,0,0,0,0,0,0,0,0,0,0,0,0,0,0,0,0,0,0,0,0,0,0,0,0,0,0,0,0,0,0,0,0,0],"id":8,"left_children":[1,3,5,7,9,11,-1,13,15,17,19,21,-1,-1,23,25,27,-1,29,31,33,-1,-1,-1,-1,-1,35,-1,37,-1,39,-1,41,43,45,-1,-1,-1,-1,47,-1,-1,-1,49,51,-1,-1,-1,-1,-1,-1,-1,-1],"loss_changes":[7.823891E6,7.7867075E5,1.796805E5,3.3479E4,5.4828594E4,6.2869375E3,0E0,2.06235E4,8.60175E3,4.8913115E3,2.0790156E4,8.346805E3,0E0,0E0,2.9431875E3,7.4490625E3,9.493512E3,0E0,1.2060176E3,2.2794802E3,7.319539E3,0E0,0E0,0E0,0E0,0E0,4.8083125E3,0E0,7.3711005E2,0E0,2.4529831E2,0E0,4.8774357E1,3.1518672E3,6.4933716E2,0E0,0E0,0E0,0E0,2.2601166E0,0E0,0E0,0E0,9.274098E3,8.401172E2,0E0,0E0,0E0,0E0,0E0,0E0,0E0,0E0],"parents":[2147483647,0,0,1,1,2,2,3,3,4,4,5,5,7,7,8,8,9,9,10,10,11,11,14,14,15,15,16,16,18,18,19,19,20,20,26,26,28,28,30,30,32,32,33,33,34,34,39,39,43,43,44,44],"right_children":[2,4,6,8,10,12,-1,14,16,18,20,22,-1,-1,24,26,28,-1,30,32,34,-1,-1,-1,-1,-1,36,-1,38,-1,40,-1,42,44,46,-1,-1,-1,-1,48,-1,-1,-1,50,52,-1,-1,-1,-1,-1,-1,-1,-1],"split_conditions":[1.8425E3,1.288E2,2.0685E2,5.75E1,1.23525E3,1.8945E2,5.170568E1,8.4E1,4.7925E2,9.37E2,2.871E2,2.1119E3,3.174043E1,-2.6698957E1,4.856E2,6.3475E1,1.519E2,-7.4467463E0,8.358E2,9.9E0,1.521E2,1.9351212E1,1.2348658E0,-2.0141047E1,-4.447424E0,-9.804003E0,8.45E0,-1.2409375E1,2.475E0,-2.9554293E0,8.843E2,-8.54664E0,1.21E1,1.5825E2,1.27775E3,-1.8616867E1,-2.9930284E0,2.8990116E0,-1.7628317E0,1.3425E1,-1.2427047E0,-8.1746614E-1,3.946295E-1,1.23775E3,1.83975E2,9.376122E-1,4.6605024E0,1.1171477E0,2.8906435E-1,1.1661923E0,2.133208E1,3.977999E0,9.504866E0],"split_indices":[5,2,2,3,4,2,0,4,4,5,11,9,0,0,9,3,1,0,9,0,1,0,0,0,0,0,0,0,0,0,9,0,0,2,4,0,0,0,0,0,0,0,0,4,6,0,0,0,0,0,0,0,0],"split_type":[0,0,0,0,0,0,0,0,0,0,0,0,0,0,0,0,0,0,0,0,0,0,0,0,0,0,0,0,0,0,0,0,0,0,0,0,0,0,0,0,0,0,0,0,0,0,0,0,0,0,0,0,0],"sum_hessian":[3.02E2,2.26E2,7.6E1,1.77E2,4.9E1,1.4E1,6.2E1,1.04E2,7.3E1,1.7E1,3.2E1,6E0,8E0,3.7E1,6.7E1,6.6E1,7E0,6E0,1.1E1,3E0,2.9E1,5E0,1E0,6.6E1,1E0,7E0,5.9E1,5E0,2E0,6E0,5E0,1E0,2E0,2.3E1,6E0,5.8E1,1E0,1E0,1E0,4E0,1E0,1E0,1E0,3E0,2E1,3E0,3E0,3E0,1E0,1E0,2E0,3E0,1.7E1],"tree_param":{"num_deleted":"0","num_feature":"12","num_nodes":"53","size_leaf_vector":"1"}},{"base_weights":[3.1403106E-1,-7.5158E1,2.298274E2,-1.0007877E2,1.7264816E1,1.6816715E1,4.2336098E1,-1.0365094E2,-4.759098E1,-2.498053E1,3.3669674E1,-2.2034475E1,-9.681993E1,2.6525977E0,-5.4157482E1,-6.834099E0,-1.2058214E1,-1.5076915E1,4.229667E1,-1.2523532E2,-9.242455E1,-1.7751359E0,-1.0515586E1,-2.5666456E0,1.0420489E0,-7.8201766E0,3.081177E-1,1.7524998E1,3.664564E1,-2.1984776E1,-5.781616E0,-2.143438E0,-9.299411E1,6.3423157E-1,-1.1375132E0,5.3928137E0,4.4564083E1,-9.351355E1,-2.7386198E0,8.803454E0,-2.0891926E0,4.6904663E1,3.6924288E0,-1.6007927E1,-6.357665E0,1.677326E0,3.868164E-1,-7.479834E-1,2.1523926E-1,4.8044975E1,2.1452901E0,8.682508E0,4.0662856E0],"categories":[],"categories_nodes":[],"categories_segments":[],"categories_sizes":[],"default_left":[0,0,0,0,0,0,0,0,0,0,0,0,0,0,0,0,0,0,0,0,0,0,0,0,0,0,0,0,0,0,0,0,0,0,0,0,0,0,0,0,0,0,0,0,0,0,0,0,0,0,0,0,0],"id":9,"left_children":[1,3,5,7,9,-1,-1,11,13,15,17,-1,19,-1,21,-1,23,25,27,29,31,-1,-1,-1,-1,-1,33,-1,35,-1,-1,-1,37,-1,-1,39,41,43,-1,45,47,49,-1,-1,-1,-1,-1,-1,-1,51,-1,-1,-1],"loss_changes":[5.109894E6,5.13049E5,1.5892275E5,2.7878875E4,3.4106473E4,0E0,0E0,1.6359875E4,6.2396133E3,2.268749E3,1.535648E4,0E0,5.036375E3,0E0,3.392832E3,0E0,5.9011816E2,2.8687854E3,6.5283086E3,1.19425E3,4.23725E3,0E0,0E0,0E0,0E0,0E0,1.4474577E2,0E0,6.936414E3,0E0,0E0,0E0,3.206125E3,0E0,0E0,1.9702118E2,2.1098047E2,7.5075E2,0E0,1.22517395E1,2.8830189E1,1.75625E2,0E0,0E0,0E0,0E0,0E0,0E0,0E0,1.66625E2,0E0,0E0,0E0],"parents":[2147483647,0,0,1,1,2,2,3,3,4,4,7,7,8,8,9,9,10,10,12,12,14,14,16,16,17,17,18,18,19,19,20,20,26,26,28,28,32,32,35,35,36,36,37,37,39,39,40,40,41,41,49,49],"right_children":[2,4,6,8,10,-1,-1,12,14,16,18,-1,20,-1,22,-1,24,26,28,30,32,-1,-1,-1,-1,-1,34,-1,36,-1,-1,-1,38,-1,-1,40,42,44,-1,46,48,50,-1,-1,-1,-1,-1,-1,-1,52,-1,-1,-1],"split_conditions":[1.71075E2,1.288E2,1.8955E2,4.425E2,1.174E3,1.6816715E1,4.2336098E1,2.865E2,2.475E0,9.2825E2,8.8275E1,-2.2034475E1,1.89E1,2.6525977E0,6.5E0,-6.834099E0,1.52125E2,9.9E0,1.41625E2,1.44425E2,2.868E2,-1.7751359E0,-1.0515586E1,-2.5666456E0,1.0420489E0,-7.8201766E0,1.3425E1,1.7524998E1,1.37525E3,-2.1984776E1,-5.781616E0,-2.143438E0,8.45E0,6.3423157E-1,-1.1375132E0,1.288E3,1.6335E2,8.44E1,-2.7386198E0,3.046E2,1.21E1,1.3775E1,3.6924288E0,-1.6007927E1,-6.357665E0,1.677326E0,3.868164E-1,-7.479834E-1,2.1523926E-1,1.521E2,2.1452901E0,8.682508E0,4.0662856E0],"split_indices":[2,2,2,4,4,0,0,11,0,5,1,0,7,0,8,0,1,0,2,1,11,0,0,0,0,0,0,0,4,0,0,0,0,0,0,5,2,6,0,1,0,0,0,0,0,0,0,0,0,1,0,0,0],"split_type":[0,0,0,0,0,0,0,0,0,0,0,0,0,0,0,0,0,0,0,0,0,0,0,0,0,0,0,0,0,0,0,0,0,0,0,0,0,0,0,0,0,0,0,0,0,0,0,0,0,0,0,0,0],"sum_hessian":[2.93E2,2.21E2,7.2E1,1.74E2,4.7E1,1E1,6.2E1,1.62E2,1.2E1,1.3E1,3.4E1,3E1,1.32E2,1E0,1.1E1,5E0,8E0,5E0,2.9E1,1.4E1,1.18E2,2E0,9E0,7E0,1E0,1E0,4E0,1E0,2.8E1,1.3E1,1E0,1E0,1.17E2,3E0,1E0,6E0,2.2E1,1.16E2,1E0,4E0,2E0,1.9E1,3E0,1.14E2,2E0,3E0,1E0,1E0,1E0,1.8E1,1E0,1.5E1,3E0],"tree_param":{"num_deleted":"0","num_feature":"12","num_nodes":"53","size_leaf_vector":"1"}},{"base_weights":[2.1625483E0,-6.1864502E1,1.9093254E2,-8.039894E1,2.060848E1,1.6119528E1,3.5780823E1,-9.172855E1,-6.4634705E1,1.4181546E0,3.8862057E1,-1.7348915E1,-7.691268E1,-7.642999E1,-4.8223404E1,-8.015329E0,4.5872665E1,1.4301775E1,3.012905E1,-1.321822E1,-3.1755676E0,-1.9293039E0,-7.762405E1,-5.0273685E1,-8.229004E0,-2.5701477E1,2.1245446E0,2.172299E0,8.949605E0,2.248148E1,8.257829E0,-1.3382097E1,-2.5058346E0,-3.5988354E1,-6.1766033E1,2.4271276E0,-4.5255237E0,-6.405955E0,-2.2733786E0,-1.116303E0,4.301686E0,-9.1891205E-1,4.1991634E0,-8.9882416E-1,-3.748329E1,-6.745352E1,-4.249396E0,5.537036E0,-6.844046E-1,-3.875092E1,-1.4621048E0,-1.7454001E0,-1.2036835E1,2.5120606E0,7.13501E0,-4.1125156E1,-2.508209E0,4.7285143E-1,1.2192291E-1,4.7461098E-1,1.4634693E0,-1.5623964E0,-7.2886987E0],"categories":[],"categories_nodes":[],"categories_segments":[],"categories_sizes":[],"default_left":[0,0,0,0,0,0,0,0,0,0,0,0,0,0,0,0,0,0,0,0,0,0,0,0,0,0,0,0,0,0,0,0,0,0,0,0,0,0,0,0,0,0,0,0,0,0,0,0,0,0,0,0,0,0,0,0,0,0,0,0,0,0,0],"id":10,"left_children":[1,3,5,7,9,-1,-1,11,13,15,17,-1,19,21,23,25,27,-1,29,-1,-1,-1,31,33,35,37,39,-1,-1,41,-1,-1,-1,43,45,-1,-1,-1,-1,-1,47,-1,-1,-1,49,51,-1,53,-1,55,-1,-1,-1,57,59,61,-1,-1,-1,-1,-1,-1,-1],"loss_changes":[3.7223322E6,3.5323262E5,1.2655E5,2.76485E4,1.5007449E4,0E0,0E0,8.5173125E3,1.2187531E4,9.593626E3,6.162086E3,0E0,8.99875E2,2.6937188E3,2.620289E3,3.4619746E3,2.2376465E2,0E0,1.7293574E3,0E0,0E0,0E0,1.9359375E3,3.523164E3,1.6218549E3,5.3001904E2,2.7422778E2,0E0,0E0,1.1238262E3,0E0,0E0,0E0,6.279512E2,2.0781797E3,0E0,0E0,0E0,0E0,0E0,1.354541E2,0E0,0E0,0E0,2.8913086E2,2.1478516E3,0E0,3.0414734E1,0E0,3.048164E2,0E0,0E0,0E0,4.229927E-1,1.4367645E1,3.8814844E2,0E0,0E0,0E0,0E0,0E0,0E0,0E0],"parents":[2147483647,0,0,1,1,2,2,3,3,4,4,7,7,8,8,9,9,10,10,12,12,13,13,14,14,15,15,16,16,18,18,22,22,23,23,24,24,25,25,26,26,29,29,33,33,34,34,40,40,44,44,45,45,47,47,49,49,53,53,54,54,55,55],"right_children":[2,4,6,8,10,-1,-1,12,14,16,18,-1,20,22,24,26,28,-1,30,-1,-1,-1,32,34,36,38,40,-1,-1,42,-1,-1,-1,44,46,-1,-1,-1,-1,-1,48,-1,-1,-1,50,52,-1,54,-1,56,-1,-1,-1,58,60,62,-1,-1,-1,-1,-1,-1,-1],"split_conditions":[1.71075E2,9.465E2,2.072E2,5.75E1,1.0092E3,1.6119528E1,3.5780823E1,1.1475E2,4.005E1,1.4125E3,7.7E0,-1.7348915E1,4.856E2,5.76E1,1.31975E2,7.997E2,3E0,1.4301775E1,1.574E3,-1.321822E1,-3.1755676E0,-1.9293039E0,7.6E0,9.3E0,2.475E0,7.278E2,8.727E2,2.172299E0,8.949605E0,1.24E1,8.257829E0,-1.3382097E1,-2.5058346E0,2.054E2,1.288E2,2.4271276E0,-4.5255237E0,-6.405955E0,-2.2733786E0,-1.116303E0,1.27775E3,-9.1891205E-1,4.1991634E0,-8.9882416E-1,1.765E2,4.44E1,-4.249396E0,8.78E2,-6.844046E-1,6.327E2,-1.4621048E0,-1.7454001E0,-1.2036835E1,1.3425E1,5.6E1,7.79E1,-2.508209E0,4.7285143E-1,1.2192291E-1,4.7461098E-1,1.4634693E0,-1.5623964E0,-7.2886987E0],"split_indices":[2,4,3,3,9,0,0,4,6,4,8,0,9,3,7,9,0,0,5,0,0,0,0,8,0,10,9,0,0,0,0,0,0,10,2,0,0,0,0,0,4,0,0,0,1,7,0,10,0,10,0,0,0,0,1,1,0,0,0,0,0,0,0],"split_type":[0,0,0,0,0,0,0,0,0,0,0,0,0,0,0,0,0,0,0,0,0,0,0,0,0,0,0,0,0,0,0,0,0,0,0,0,0,0,0,0,0,0,0,0,0,0,0,0,0,0,0,0,0,0,0,0,0,0,0,0,0,0,0],"sum_hessian":[3.06E2,2.29E2,7.7E1,1.87E2,4.2E1,1.4E1,6.3E1,1.06E2,8.1E1,2.1E1,2.1E1,5.9E1,4.7E1,4.5E1,3.6E1,1.8E1,3E0,2E0,1.9E1,4.6E1,1E0,1E0,4.4E1,3.4E1,2E0,6E0,1.2E1,1E0,2E0,1.5E1,4E0,4.3E1,1E0,1.7E1,1.7E1,1E0,1E0,2E0,4E0,2E0,1E1,1E0,1.4E1,1E0,1.6E1,1.4E1,3E0,9E0,1E0,1.5E1,1E0,1E0,1.3E1,4E0,5E0,1.3E1,2E0,3E0,1E0,2E0,3E0,1E0,1.2E1],"tree_param":{"num_deleted":"0","num_feature":"12","num_nodes":"63","size_leaf_vector":"1"}},{"base_weights":[3.4962696E-1,-5.1224926E1,1.5644395E2,-6.820469E1,1.3516356E1,5.5096054E1,1.6606659E2,-7.831267E1,-5.544822E1,-4.4057355E0,3.676884E1,6.577311E1,-1.6696814E0,2.3397373E1,3.103015E1,-9.032538E1,-1.1130076E1,-6.123228E1,-4.4828964E1,-1.1471191E1,4.0854797E1,1.4819727E1,2.9889797E1,1.1943818E1,3.303545E0,-9.167327E1,-2.2928367E0,-1.7653142E0,-6.204156E1,-3.28423E1,-5.551215E1,-2.8015415E1,-2.037709E0,3.0284572E0,9.347945E0,-8.408069E-1,3.1983568E1,-4.868664E1,-9.563152E1,-1.21280365E1,-5.3463627E1,-3.6291565E1,-3.4987793E0,-1.0416366E1,-3.8950741E0,-4.5144386E1,-5.283362E0,-1.284049E1,2.273954E0,4.201828E0,7.4135556E0,-1.1630863E1,4.24697E0,-1.6467756E1,-3.8155215E0,-9.230238E0,-2.4937959E0,-8.2242584E-1,-3.8065964E1,2.3203796E-1,-1.1242267E0,-2.2116964E0,-8.487333E0,2.220822E0,-2.2331254E0,-3.2061286E0,-2.5412395E0,-1.1093025E0,4.46703E0,-2.7412903E0,-4.2207375E1,-5.3874147E-1,-1.09274596E-1,6.347419E0,-2.663147E0,-7.5843086E0,-1.3378266E0,3.1147125E-1,8.299672E0,2.668338E-1,-9.4593626E-1,3.643991E-1,1.5473737E0],"categories":[],"categories_nodes":[],"categories_segments":[],"categories_sizes":[],"default_left":[0,0,0,0,0,0,0,0,0,0,0,0,0,0,0,0,0,0,0,0,0,0,0,0,0,0,0,0,0,0,0,0,0,0,0,0,0,0,0,0,0,0,0,0,0,0,0,0,0,0,0,0,0,0,0,0,0,0,0,0,0,0,0,0,0,0,0,0,0,0,0,0,0,0,0,0,0,0,0,0,0,0,0],"id":11,"left_children":[1,3,5,7,9,11,13,15,17,19,21,23,-1,-1,-1,25,-1,27,29,31,33,-1,35,-1,-1,37,-1,-1,39,41,43,45,47,-1,-1,-1,49,51,53,-1,55,57,59,-1,-1,61,63,65,67,-1,-1,-1,-1,-1,-1,-1,-1,-1,69,-1,-1,-1,-1,-1,-1,-1,71,-1,73,-1,75,-1,-1,77,79,-1,-1,-1,81,-1,-1,-1,-1],"loss_changes":[2.431213E6,2.50461E5,6.3992875E4,1.886725E4,2.0165188E4,6.191037E3,6.712E3,9.2040625E3,2.3530938E3,9.42267E3,4.6760117E3,8.9453125E1,0E0,0E0,0E0,3.7349375E3,0E0,1.4544062E3,2.4026953E3,3.8446538E3,3.2294824E2,0E0,1.6169492E3,0E0,0E0,3.3411562E3,0E0,0E0,1.7448438E2,1.6948672E3,1.6008203E3,3.265875E3,8.2102386E2,0E0,0E0,0E0,5.27291E2,1.0430206E4,1.6301562E3,0E0,1.7169531E2,7.088281E2,5.446783E1,0E0,0E0,1.1866113E2,8.919702E2,2.620338E2,2.8001562E2,0E0,0E0,0E0,0E0,0E0,0E0,0E0,0E0,0E0,6.8238086E2,0E0,0E0,0E0,0E0,0E0,0E0,0E0,1.5386448E0,0E0,1.643867E2,0E0,6.403965E2,0E0,0E0,6.412741E1,4.557386E1,0E0,0E0,0E0,1.0131958E1,0E0,0E0,0E0,0E0],"parents":[2147483647,0,0,1,1,2,2,3,3,4,4,5,5,6,6,7,7,8,8,9,9,10,10,11,11,15,15,17,17,18,18,19,19,20,20,22,22,25,25,28,28,29,29,30,30,31,31,32,32,36,36,37,37,38,38,40,40,41,41,42,42,45,45,46,46,47,47,48,48,58,58,66,66,68,68,70,70,73,73,74,74,78,78],"right_children":[2,4,6,8,10,12,14,16,18,20,22,24,-1,-1,-1,26,-1,28,30,32,34,-1,36,-1,-1,38,-1,-1,40,42,44,46,48,-1,-1,-1,50,52,54,-1,56,58,60,-1,-1,62,64,66,68,-1,-1,-1,-1,-1,-1,-1,-1,-1,70,-1,-1,-1,-1,-1,-1,-1,72,-1,74,-1,76,-1,-1,78,80,-1,-1,-1,82,-1,-1,-1,-1],"split_conditions":[1.8425E3,7.83E2,1.8945E2,1.05E2,1.0092E3,2.1119E3,1.72E1,3.97E1,1.77E2,1.4125E3,1.41625E2,2.1131E3,-1.6696814E0,2.3397373E1,3.103015E1,1.115E1,-1.1130076E1,2.554E2,9.3E0,7.607E2,1.12E1,1.4819727E1,1.24E1,1.1943818E1,3.303545E0,2.225E2,-2.2928367E0,-1.7653142E0,7.6125E1,8.1E0,1.15E1,9.3E0,9.42E2,3.0284572E0,9.347945E0,-8.408069E-1,1.573E3,2.546E2,2.00975E2,-1.21280365E1,1.8E0,2.054E2,1.25E-1,-1.0416366E1,-3.8950741E0,8.7575E2,2.475E0,1.499E2,8.358E2,4.201828E0,7.4135556E0,-1.1630863E1,4.24697E0,-1.6467756E1,-3.8155215E0,-9.230238E0,-2.4937959E0,-8.2242584E-1,2E2,2.3203796E-1,-1.1242267E0,-2.2116964E0,-8.487333E0,2.220822E0,-2.2331254E0,-3.2061286E0,1.12E1,-1.1093025E0,1.516E2,-2.7412903E0,1.7685E2,-5.3874147E-1,-1.09274596E-1,8.752E2,1.2975E1,-7.5843086E0,-1.3378266E0,3.1147125E-1,5.6E1,2.668338E-1,-9.4593626E-1,3.643991E-1,1.5473737E0],"split_indices":[5,5,2,5,9,9,0,6,4,4,2,10,0,0,0,0,0,10,8,9,0,0,0,0,0,11,0,0,3,8,8,8,5,0,0,0,5,10,1,0,0,10,0,0,0,4,0,1,10,0,0,0,0,0,0,0,0,0,4,0,0,0,0,0,0,0,0,0,3,0,1,0,0,10,0,0,0,0,1,0,0,0,0],"split_type":[0,0,0,0,0,0,0,0,0,0,0,0,0,0,0,0,0,0,0,0,0,0,0,0,0,0,0,0,0,0,0,0,0,0,0,0,0,0,0,0,0,0,0,0,0,0,0,0,0,0,0,0,0,0,0,0,0,0,0,0,0,0,0,0,0,0,0,0,0,0,0,0,0,0,0,0,0,0,0,0,0,0,0],"sum_hessian":[3E2,2.26E2,7.4E1,1.79E2,4.7E1,7E0,6.7E1,9.7E1,8.2E1,2.7E1,2E1,6E0,1E0,2.8E1,3.9E1,4.7E1,5E1,5E1,3.2E1,2.4E1,3E0,1E0,1.9E1,5E0,1E0,4.6E1,1E0,1E0,4.9E1,1.7E1,1.5E1,8E0,1.6E1,2E0,1E0,1E0,1.8E1,5E0,4.1E1,2E1,2.9E1,1.5E1,2E0,1.2E1,3E0,4E0,4E0,4E0,1.2E1,1.3E1,5E0,4E0,1E0,4E1,1E0,2.8E1,1E0,1E0,1.4E1,1E0,1E0,1E0,3E0,1E0,3E0,2E0,2E0,2E0,1E1,3E0,1.1E1,1E0,1E0,8E0,2E0,1E1,1E0,3E0,5E0,1E0,1E0,1E0,4E0],"tree_param":{"num_deleted":"0","num_feature":"12","num_nodes":"83","size_leaf_vector":"1"}},{"base_weights":[5.390846E-1,-4.3991234E1,1.3180978E2,-5.8208664E1,1.0240607E1,6.7204666E1,1.463561E2,-8.813672E1,-5.4751434E1,-3.4663002E0,2.9603592E1,4.709006E1,1.3843613E1,4.9486588E1,1.3667976E2,-5.589085E0,-1.5863192E1,-5.2274605E1,-9.159968E1,-9.559119E0,3.70036E1,1.3560053E1,2.2765358E1,9.387914E0,-1.5277588E0,2.0032282E1,2.640874E1,-5.5305645E1,-3.4179714E1,-1.6993952E1,-2.0979447E0,-3.4751E1,-3.3991866E0,2.6852336E0,8.553374E0,-7.693372E-1,2.4532936E1,-6.9957986E0,-5.599506E1,-3.659997E1,2.032052E0,-6.8768992E0,-1.0153775E0,-1.1478012E1,1.1361328E0,1.8671505E1,3.6038353E1,-5.6699057E0,3.885977E0,-5.6672966E1,-3.4803736E0,-2.4634537E1,-7.6210327E0,-2.8582287E0,-1.9396362E0,-1.2201941E0,3.8127034E0,3.8625138E0,2.1750731E0,1.8684021E0,6.7239494E0,-1.2345188E1,-5.388899E1,-7.525177E-1,-2.6069208E1,-1.1101949E-1,-4.929471E-1,2.4565633E-1,6.3255005E0,-1.615262E0,-5.4203274E1,-3.0651957E1,-1.443952E1,2.3313355E0,-8.655329E-1,2.8089496E-1,1.3369321E0,-9.428397E0,-5.743433E0,-1.1086965E0,-5.709739E0,2.1231583E-1,-3.174556E0,4.5286727E-1,8.508301E-2],"categories":[],"categories_nodes":[],"categories_segments":[],"categories_sizes":[],"default_left":[0,0,0,0,0,0,0,0,0,0,0,0,0,0,0,0,0,0,0,0,0,0,0,0,0,0,0,0,0,0,0,0,0,0,0,0,0,0,0,0,0,0,0,0,0,0,0,0,0,0,0,0,0,0,0,0,0,0,0,0,0,0,0,0,0,0,0,0,0,0,0,0,0,0,0,0,0,0,0,0,0,0,0,0,0],"id":12,"left_children":[1,3,5,7,9,11,13,15,17,19,21,23,-1,-1,25,-1,-1,27,29,31,33,-1,35,-1,-1,-1,-1,37,39,-1,-1,41,43,-1,-1,-1,45,47,49,51,-1,-1,-1,53,55,57,59,-1,-1,61,-1,63,-1,-1,65,-1,67,-1,-1,-1,-1,-1,69,-1,71,-1,-1,73,75,-1,77,79,81,83,-1,-1,-1,-1,-1,-1,-1,-1,-1,-1,-1],"loss_changes":[1.7769929E6,1.7562153E5,6.252625E4,1.37986875E4,1.2842133E4,7.4447656E2,4.7048E4,1.7947344E3,1.01794375E4,7.50442E3,5.0444316E3,4.60092E3,0E0,0E0,2.7975E3,0E0,0E0,6.6656875E3,4.733172E3,3.9165625E3,3.34417E2,0E0,1.0275596E3,0E0,0E0,0E0,0E0,4.0045938E3,3.22883E3,0E0,0E0,5.787583E2,8.191217E2,0E0,0E0,0E0,5.4099805E2,3.1229792E3,1.9702188E3,1.2589531E3,0E0,0E0,0E0,3.7449402E2,3.61151E2,4.24541E1,5.4174805E0,0E0,0E0,1.7245312E3,0E0,2.325044E2,0E0,0E0,3.04708E0,0E0,1.0600528E2,0E0,0E0,0E0,0E0,0E0,1.0474375E3,0E0,1.4365576E2,0E0,0E0,7.865763E1,3.7343445E1,0E0,9.771875E2,2.7666797E2,3.5547278E2,1.7113419E0,0E0,0E0,0E0,0E0,0E0,0E0,0E0,0E0,0E0,0E0,0E0],"parents":[2147483647,0,0,1,1,2,2,3,3,4,4,5,5,6,6,7,7,8,8,9,9,10,10,11,11,14,14,17,17,18,18,19,19,20,20,22,22,27,27,28,28,31,31,32,32,36,36,37,37,38,38,39,39,43,43,44,44,45,45,46,46,49,49,51,51,54,54,56,56,62,62,64,64,67,67,68,68,70,70,71,71,72,72,73,73],"right_children":[2,4,6,8,10,12,14,16,18,20,22,24,-1,-1,26,-1,-1,28,30,32,34,-1,36,-1,-1,-1,-1,38,40,-1,-1,42,44,-1,-1,-1,46,48,50,52,-1,-1,-1,54,56,58,60,-1,-1,62,-1,64,-1,-1,66,-1,68,-1,-1,-1,-1,-1,70,-1,72,-1,-1,74,76,-1,78,80,82,84,-1,-1,-1,-1,-1,-1,-1,-1,-1,-1,-1],"split_conditions":[1.71075E2,1.253E2,2.0685E2,2.464E2,1.0092E3,1.8945E2,2.112E2,8.025E0,6.323E2,1.4125E3,1.41625E2,2.107E3,1.3843613E1,4.9486588E1,2.1436E3,-5.589085E0,-1.5863192E1,5.835E1,1.115E1,6.663E2,1.12E1,1.3560053E1,1.24E1,9.387914E0,-1.5277588E0,2.0032282E1,2.640874E1,2.225E2,2.17675E2,-1.6993952E1,-2.0979447E0,6.143E2,9.4875E2,2.6852336E0,8.553374E0,-7.693372E-1,1.573E3,1.2E0,2.09E2,9.3E0,2.032052E0,-6.8768992E0,-1.0153775E0,1.499E2,8.358E2,1.3175E1,1.579E3,-5.6699057E0,3.885977E0,2.846E2,-3.4803736E0,6.5E0,-7.6210327E0,-2.8582287E0,1.519E2,-1.2201941E0,9.0825E1,3.8625138E0,2.1750731E0,1.8684021E0,6.7239494E0,-1.2345188E1,2.554E2,-7.525177E-1,3.512E2,-1.1101949E-1,-4.929471E-1,1.23875E3,8.78E2,-1.615262E0,2.525E2,2E2,3.362E2,1.3425E1,-8.655329E-1,2.8089496E-1,1.3369321E0,-9.428397E0,-5.743433E0,-1.1086965E0,-5.709739E0,2.1231583E-1,-3.174556E0,4.5286727E-1,8.508301E-2],"split_indices":[2,2,2,9,9,2,2,2,9,4,2,11,0,0,9,0,0,6,0,9,0,0,0,0,0,0,0,11,1,0,0,10,5,0,0,0,5,0,4,8,0,0,0,1,10,0,4,0,0,11,0,8,0,0,1,0,1,0,0,0,0,0,10,0,11,0,0,4,10,0,5,4,9,0,0,0,0,0,0,0,0,0,0,0,0],"split_type":[0,0,0,0,0,0,0,0,0,0,0,0,0,0,0,0,0,0,0,0,0,0,0,0,0,0,0,0,0,0,0,0,0,0,0,0,0,0,0,0,0,0,0,0,0,0,0,0,0,0,0,0,0,0,0,0,0,0,0,0,0,0,0,0,0,0,0,0,0,0,0,0,0,0,0,0,0,0,0,0,0,0,0,0,0],"sum_hessian":[3.02E2,2.26E2,7.6E1,1.79E2,4.7E1,1.5E1,6.1E1,1.6E1,1.63E2,2.8E1,1.9E1,8E0,7E0,2E0,5.9E1,2E0,1.4E1,1.55E2,8E0,2.5E1,3E0,1E0,1.8E1,7E0,1E0,3.3E1,2.6E1,1.31E2,2.4E1,7E0,1E0,4E0,2.1E1,2E0,1E0,1E0,1.7E1,2E0,1.29E2,2.3E1,1E0,3E0,1E0,7E0,1.4E1,1.3E1,4E0,1E0,1E0,1.26E2,3E0,1.1E1,1.2E1,4E0,3E0,3E0,1.1E1,6E0,7E0,1E0,3E0,1.5E1,1.11E2,1E0,1E1,2E0,1E0,5E0,6E0,1E0,1.1E2,6E0,4E0,4E0,1E0,2E0,4E0,1.02E2,8E0,1E0,5E0,1E0,3E0,3E0,1E0],"tree_param":{"num_deleted":"0","num_feature":"12","num_nodes":"85","size_leaf_vector":"1"}},{"base_weights":[2.127369E0,-3.575382E1,1.1471837E2,-4.8342045E1,1.4274658E1,8.848756E1,1.2708324E2,-5.4064507E1,-3.576765E1,1.2407448E1,1.1281583E1,5.1801996E0,1.5624692E1,3.5122185E1,1.9577007E1,-7.0336624E1,-4.8759007E1,-3.7660366E1,1.9525583E0,-6.0971713E0,2.3547535E1,-1.5015854E0,-7.236243E1,3.555668E0,-4.9743683E1,-3.8332886E1,-5.710419E-2,-4.520799E0,-2.1216145E0,8.447975E0,1.9298082E1,-3.1379807E0,-1.2542639E1,-1.07955265E1,-4.3953552E1,-3.5321236E1,-1.0435475E1,-7.205597E0,2.1577332E0,-1.3979034E0,2.085217E1,-4.5916176E1,-5.0335965E0,-4.0020947E1,-2.2539312E1,-9.0551145E-2,-1.3740728E0,-7.039426E-1,3.3176677E0,1.4745121E1,5.1781573E0,-7.8753386E0,-1.9196179E0,-2.1444656E1,-7.195311E0,-9.1019624E-1,-2.4611908E1,2.3695877E-1,4.047251E0,2.7828865E0,2.2476807E0,-3.9689271E0,-1.0144566E0,-2.7446922E1,-1.8126494E0,2.0565705E-1,7.433765E-1,7.0865846E-1,-1.3549988E-1,-6.88555E-1,-4.9948635E0],"categories":[],"categories_nodes":[],"categories_segments":[],"categories_sizes":[],"default_left":[0,0,0,0,0,0,0,0,0,0,0,0,0,0,0,0,0,0,0,0,0,0,0,0,0,0,0,0,0,0,0,0,0,0,0,0,0,0,0,0,0,0,0,0,0,0,0,0,0,0,0,0,0,0,0,0,0,0,0,0,0,0,0,0,0,0,0,0,0,0,0],"id":13,"left_children":[1,3,5,7,9,11,13,15,17,-1,19,-1,-1,-1,-1,21,23,25,-1,27,29,-1,31,-1,33,35,-1,-1,37,-1,39,-1,-1,-1,41,43,-1,45,47,-1,49,51,-1,53,55,-1,-1,-1,57,59,-1,-1,-1,61,-1,-1,63,-1,65,-1,67,-1,-1,69,-1,-1,-1,-1,-1,-1,-1],"loss_changes":[1.2537704E6,1.392394E5,1.2756E4,1.0730594E4,7.084214E3,2.5602656E3,2.1721688E4,6.8439375E3,5.6199062E3,0E0,9.52292E3,0E0,0E0,0E0,0E0,2.7248906E3,7.4208906E3,1.3928047E3,0E0,1.4917395E3,1.9298105E3,0E0,6.2515625E2,0E0,4.5383438E3,1.6501953E3,0E0,0E0,3.8540195E2,0E0,1.1979492E3,0E0,0E0,0E0,5.548125E2,2.1615898E3,0E0,4.252185E1,8.679724E1,0E0,9.0036816E2,2.989453E2,0E0,6.3341406E2,4.3811377E2,0E0,0E0,0E0,6.9907455E0,2.8809912E2,0E0,0E0,0E0,3.7305664E1,0E0,0E0,2.609912E2,0E0,2.5253296E-1,0E0,2.0868504E1,0E0,0E0,3.7889648E2,0E0,0E0,0E0,0E0,0E0,0E0,0E0],"parents":[2147483647,0,0,1,1,2,2,3,3,4,4,5,5,6,6,7,7,8,8,10,10,15,15,16,16,17,17,19,19,20,20,22,22,24,24,25,25,28,28,30,30,34,34,35,35,37,37,38,38,40,40,41,41,43,43,44,44,48,48,49,49,53,53,56,56,58,58,60,60,63,63],"right_children":[2,4,6,8,10,12,14,16,18,-1,20,-1,-1,-1,-1,22,24,26,-1,28,30,-1,32,-1,34,36,-1,-1,38,-1,40,-1,-1,-1,42,44,-1,46,48,-1,50,52,-1,54,56,-1,-1,-1,58,60,-1,-1,-1,62,-1,-1,64,-1,66,-1,68,-1,-1,70,-1,-1,-1,-1,-1,-1,-1],"split_conditions":[2.184E3,1.38E2,2.1119E3,4.5325E1,8.69E1,1.8945E2,8.83E1,1.105E2,2.17675E2,1.2407448E1,1.4125E3,5.1801996E0,1.5624692E1,3.5122185E1,1.9577007E1,1.25E-1,1.13375E2,7.607E2,1.9525583E0,7.278E2,6.356E2,-1.5015854E0,-9.505E1,3.555668E0,3.046E2,6.323E2,-5.710419E-2,-4.520799E0,8.727E2,8.447975E0,8.9E1,-3.1379807E0,-1.2542639E1,-1.07955265E1,2.525E2,1.73E2,-1.0435475E1,7.706E2,1.449E2,-1.3979034E0,1.574E3,5.6E0,-5.0335965E0,8.1E0,6.56E1,-9.0551145E-2,-1.3740728E0,-7.039426E-1,8.752E2,1.57075E3,5.1781573E0,-7.8753386E0,-1.9196179E0,6.18E1,-7.195311E0,-9.1019624E-1,1.198E2,2.3695877E-1,4.59E1,2.7828865E0,1.34E1,-3.9689271E0,-1.0144566E0,2.054E2,-1.8126494E0,2.0565705E-1,7.433765E-1,7.0865846E-1,-1.3549988E-1,-6.88555E-1,-4.9948635E0],"split_indices":[4,2,9,6,3,2,1,1,1,0,4,0,0,0,0,0,1,9,0,10,11,0,2,0,10,9,0,0,9,0,1,0,0,0,5,5,0,10,2,0,5,0,0,8,3,0,0,0,10,5,0,0,0,3,0,0,3,0,1,0,0,0,0,10,0,0,0,0,0,0,0],"split_type":[0,0,0,0,0,0,0,0,0,0,0,0,0,0,0,0,0,0,0,0,0,0,0,0,0,0,0,0,0,0,0,0,0,0,0,0,0,0,0,0,0,0,0,0,0,0,0,0,0,0,0,0,0,0,0,0,0,0,0,0,0,0,0,0,0,0,0,0,0,0,0],"sum_hessian":[2.92E2,2.19E2,7.3E1,1.75E2,4.4E1,2.6E1,4.7E1,1.18E2,5.7E1,1E0,4.3E1,2E0,2.4E1,4E0,4.3E1,2.6E1,9.2E1,5.5E1,2E0,1.8E1,2.5E1,1E0,2.5E1,1E0,9.1E1,5.4E1,1E0,2E0,1.6E1,2E0,2.3E1,1E0,2.4E1,2.4E1,6.7E1,5E1,4E0,7E0,9E0,1E0,2.2E1,5.7E1,1E1,3.5E1,1.5E1,1E0,6E0,1E0,8E0,1.5E1,7E0,5.6E1,1E0,5E0,3E1,2E0,1.3E1,3E0,5E0,1.3E1,2E0,4E0,1E0,1E1,3E0,1E0,4E0,1E0,1E0,1E0,9E0],"tree_param":{"num_deleted":"0","num_feature":"12","num_nodes":"71","size_leaf_vector":"1"}},{"base_weights":[-1.889829E-1,-2.9833527E1,9.542777E1,-3.9700172E1,1.255351E1,7.108402E1,1.1587651E2,-5.124036E1,-3.3935516E1,1.1352813E1,9.739347E0,3.6049835E1,7.855508E1,1.954729E2,1.03104095E2,-4.740468E1,-1.5825085E1,-3.9340057E1,-2.5383966E1,-5.3707147E0,2.083342E1,8.00278E0,1.982544E0,1.3575614E1,3.690299E0,4.957123E0,4.1002445E1,1.0800229E2,9.026004E0,-9.569551E0,-3.923575E1,-6.8214607E0,-1.1618068E0,-4.7982788E-1,-2.6370537E1,-4.920729E0,-2.452925E0,7.10826E0,1.821704E1,-1.2790778E0,1.7846265E0,4.79449E0,1.8662851E1,3.2534368E0,-4.165798E1,-9.2822707E-1,8.05871E-1,-2.828614E1,-1.277784E1,-6.906216E0,1.8003296E0,1.1530762E1,2.2987675E1,-1.3739505E0,-4.2480366E1,-2.3158743E1,-4.289068E1,-1.61218E1,9.035401E-1,-1.3810788E0,-3.3529968E0,-6.441095E-1,2.8423395E0,2.1609745E0,-1.2398255E-1,1.8166001E0,2.934056E1,-4.3225327E1,-1.7111801E0,-2.5196758E1,-1.1698295E1,-8.424537E0,-2.0503525E1,-3.6211448E0,-1.6643015E0,-8.285218E-2,-7.0477784E-1,5.7711184E-2,3.1127625E0,1.3870087E0,5.3041635E0,-7.552379E0,-2.9941835E0,-8.2917804E-1,-2.5768673E1,-1.4250427E1,-1.05767E0,-5.2248232E-2,-4.6126337E0,3.4124582E0,8.626587E-2,-1.271218E0,-4.451376E0,-6.300293E-1,-2.8100774E0,7.032422E-1,3.1196412E-1],"categories":[],"categories_nodes":[],"categories_segments":[],"categories_sizes":[],"default_left":[0,0,0,0,0,0,0,0,0,0,0,0,0,0,0,0,0,0,0,0,0,0,0,0,0,0,0,0,0,0,0,0,0,0,0,0,0,0,0,0,0,0,0,0,0,0,0,0,0,0,0,0,0,0,0,0,0,0,0,0,0,0,0,0,0,0,0,0,0,0,0,0,0,0,0,0,0,0,0,0,0,0,0,0,0,0,0,0,0,0,0,0,0,0,0,0,0],"id":14,"left_children":[1,3,5,7,9,11,13,15,17,-1,19,21,23,25,27,29,-1,31,33,35,37,-1,39,-1,-1,-1,-1,41,-1,-1,43,-1,-1,45,47,-1,49,-1,51,-1,-1,-1,-1,-1,53,-1,-1,55,57,59,61,63,65,-1,67,69,71,73,-1,-1,75,-1,77,-1,-1,-1,79,81,-1,83,85,-1,87,-1,-1,-1,-1,-1,89,-1,-1,-1,-1,-1,91,93,-1,-1,-1,95,-1,-1,-1,-1,-1,-1,-1],"loss_changes":[8.503669E5,9.627028E4,2.7106812E4,1.0634844E4,6.064244E3,6.329078E3,1.7461562E4,5.218172E3,4.8709688E3,0E0,7.320072E3,2.911499E3,3.3809375E2,2.3381E4,2.5943125E3,1.9293125E3,0E0,1.668E3,1.2649688E3,1.235936E3,6.105703E2,0E0,3.2183704E2,0E0,0E0,0E0,0E0,1.1631875E3,0E0,0E0,5.4632656E3,0E0,0E0,1.0387909E2,9.4047656E2,0E0,3.5337112E2,0E0,5.0048193E2,0E0,0E0,0E0,0E0,0E0,5.402617E2,0E0,0E0,2.2266875E3,5.696986E2,1.1703552E1,6.900939E1,1.829989E2,7.0244434E2,0E0,3.1348438E2,4.9936328E2,4.7612305E2,2.1013306E1,0E0,0E0,7.0664787E0,0E0,5.034767E0,0E0,0E0,0E0,6.0686523E1,1.3991797E2,0E0,1.9969727E2,9.180664E0,0E0,5.272324E2,0E0,0E0,0E0,0E0,0E0,4.514778E0,0E0,0E0,0E0,0E0,0E0,9.589844E0,3.4880432E1,0E0,0E0,0E0,4.0579224E-1,0E0,0E0,0E0,0E0,0E0,0E0,0E0],"parents":[2147483647,0,0,1,1,2,2,3,3,4,4,5,5,6,6,7,7,8,8,10,10,11,11,12,12,13,13,14,14,15,15,17,17,18,18,19,19,20,20,22,22,27,27,30,30,33,33,34,34,36,36,38,38,44,44,47,47,48,48,49,49,50,50,51,51,52,52,54,54,55,55,56,56,57,57,60,60,62,62,66,66,67,67,69,69,70,70,72,72,78,78,84,84,85,85,89,89],"right_children":[2,4,6,8,10,12,14,16,18,-1,20,22,24,26,28,30,-1,32,34,36,38,-1,40,-1,-1,-1,-1,42,-1,-1,44,-1,-1,46,48,-1,50,-1,52,-1,-1,-1,-1,-1,54,-1,-1,56,58,60,62,64,66,-1,68,70,72,74,-1,-1,76,-1,78,-1,-1,-1,80,82,-1,84,86,-1,88,-1,-1,-1,-1,-1,90,-1,-1,-1,-1,-1,92,94,-1,-1,-1,96,-1,-1,-1,-1,-1,-1,-1],"split_conditions":[1.8425E3,9.465E2,1.72E1,6.6E1,8.69E1,1.8945E2,2.112E2,6.428E2,1.27E2,1.1352813E1,1.4125E3,2.1131E3,2.1824E3,1.81E1,1.905E1,2.798E2,-1.5825085E1,4.312E2,1.5E2,9.9E0,1.47E3,8.00278E0,1.48E1,1.3575614E1,3.690299E0,4.957123E0,4.1002445E1,2.117E2,9.026004E0,-9.569551E0,2.842E2,-6.8214607E0,-1.1618068E0,7.5E-2,1.13E1,-4.920729E0,8.727E2,7.10826E0,1.0962E3,-1.2790778E0,1.7846265E0,4.79449E0,1.8662851E1,3.2534368E0,1.25E-1,-9.2822707E-1,8.05871E-1,6.222E2,1.79E2,1.509E2,1.449E2,1.6335E2,1.813E2,-1.3739505E0,5.925E1,4.15E0,7.607E2,1.74E2,9.035401E-1,-1.3810788E0,1.517E2,-6.441095E-1,1.52225E2,2.1609745E0,-1.2398255E-1,1.8166001E0,1.285E1,4.6375E1,-1.7111801E0,7.5E-2,3.254E2,-8.424537E0,7.889E2,-3.6211448E0,-1.6643015E0,-8.285218E-2,-7.0477784E-1,5.7711184E-2,1.288E3,1.3870087E0,5.3041635E0,-7.552379E0,-2.9941835E0,-8.2917804E-1,4.3E0,1.217E2,-1.05767E0,-5.2248232E-2,-4.6126337E0,1.515E2,8.626587E-2,-1.271218E0,-4.451376E0,-6.300293E-1,-2.8100774E0,7.032422E-1,3.1196412E-1],"split_indices":[5,4,0,4,3,2,2,9,5,0,4,10,11,0,0,10,0,9,5,0,4,0,0,0,0,0,0,2,0,0,10,0,0,0,8,0,9,0,11,0,0,0,0,0,0,0,0,9,1,1,2,2,7,0,4,0,9,5,0,0,1,0,6,0,0,0,0,2,0,0,10,0,9,0,0,0,0,0,5,0,0,0,0,0,8,1,0,0,0,3,0,0,0,0,0,0,0],"split_type":[0,0,0,0,0,0,0,0,0,0,0,0,0,0,0,0,0,0,0,0,0,0,0,0,0,0,0,0,0,0,0,0,0,0,0,0,0,0,0,0,0,0,0,0,0,0,0,0,0,0,0,0,0,0,0,0,0,0,0,0,0,0,0,0,0,0,0,0,0,0,0,0,0,0,0,0,0,0,0,0,0,0,0,0,0,0,0,0,0,0,0,0,0,0,0,0,0],"sum_hessian":[2.98E2,2.28E2,7E1,1.85E2,4.3E1,3.4E1,3.6E1,5.9E1,1.26E2,1E0,4.2E1,7E0,2.7E1,3E0,3.3E1,5.6E1,3E0,7.5E1,5.1E1,1.8E1,2.4E1,5E0,2E0,2.6E1,1E0,1E0,2E0,2.9E1,4E0,2.4E1,3.2E1,7.3E1,2E0,2E0,4.9E1,1E0,1.7E1,1E0,2.3E1,1E0,1E0,1E0,2.8E1,1E0,3.1E1,1E0,1E0,4.2E1,7E0,8E0,9E0,1.1E1,1.2E1,1E0,3E1,3.3E1,9E0,6E0,1E0,5E0,3E0,1E0,8E0,1E1,1E0,5E0,7E0,2.9E1,1E0,2.7E1,6E0,6E0,3E0,2E0,4E0,1E0,2E0,1E0,7E0,1E0,6E0,2.7E1,2E0,1E0,2.6E1,3E0,3E0,1E0,2E0,6E0,1E0,1E0,2.5E1,1E0,2E0,3E0,3E0],"tree_param":{"num_deleted":"0","num_feature":"12","num_nodes":"97","size_leaf_vector":"1"}},{"base_weights":[8.7506646E-1,-2.7761967E1,7.771274E1,-3.4410606E1,5.698351E0,3.9769794E1,8.825705E1,-5.1123043E1,-3.1325516E1,-4.4869623E0,1.5047681E1,4.7747906E1,2.4694028E0,3.63555E1,8.037479E1,-3.692204E0,-5.5482037E1,-5.0886005E1,-2.9589664E1,-4.502468E0,-1.6350062E0,6.5040565E0,1.1632647E1,5.319597E1,2.0828766E1,1.1250877E1,1.5933249E1,-4.1571995E1,-7.0955215E1,-1.0097715E1,-3.593779E0,-5.5410767E0,-3.024657E1,-5.9731174E0,2.8847723E0,1.502652E1,6.5691595E0,9.62106E0,1.6329297E0,-1.1703583E0,5.5014257E0,-7.620191E0,6.056717E-2,-4.0567444E1,-1.481583E1,2.9768937E0,-1.5681915E1,-3.413405E1,-2.4296017E1,-1.1854225E0,-2.9799042E0,1.2211059E0,3.9714844E0,6.7302215E-1,2.6887822E0,1.284712E0,-1.1344055E-1,-2.1055114E0,-7.5678263E0,-3.1702483E0,-5.764789E-1,-3.4609436E1,-1.740366E0,-7.523119E0,-2.1142183E1,-7.581207E-2,-6.2490356E-1,2.581543E-1,8.782572E-2,2.0523164E-1,7.413246E-1,-3.523372E1,-2.3962657E0,-1.686314E1,-3.555833E1,-1.3375438E0,-6.033928E0,-1.7868906E1,2.0717247E0,-7.3669987E0,-1.755893E1,-2.0021896E1,-9.192444E0,-4.7807314E-2,-2.1808052E1,-2.3496044E1,-1.2273646E1,-1.0586473E1,2.8507477E-1,-5.14856E-1,-4.599921E0,-2.4486677E1,-3.130873E-1,-2.6680706E0,-1.3927954E1,-1.690532E-1,-1.9823997E0,-2.5198954E1,-9.310416E-1,7.373714E-1,-1.4177294E0,-9.82439E-1,-1.5242798E1,-1.3984961E1,-2.725702E1,-2.7657166E0,-6.850946E-1,-2.634092E0,-6.754242E-1,-1.3237516E0,-4.775564E0],"categories":[],"categories_nodes":[],"categories_segments":[],"categories_sizes":[],"default_left":[0,0,0,0,0,0,0,0,0,0,0,0,0,0,0,0,0,0,0,0,0,0,0,0,0,0,0,0,0,0,0,0,0,0,0,0,0,0,0,0,0,0,0,0,0,0,0,0,0,0,0,0,0,0,0,0,0,0,0,0,0,0,0,0,0,0,0,0,0,0,0,0,0,0,0,0,0,0,0,0,0,0,0,0,0,0,0,0,0,0,0,0,0,0,0,0,0,0,0,0,0,0,0,0,0,0,0,0,0,0,0],"id":15,"left_children":[1,3,5,7,9,11,13,15,17,19,21,23,-1,-1,25,-1,27,29,31,-1,33,-1,35,37,39,-1,-1,41,43,-1,-1,45,47,49,51,53,55,-1,-1,-1,-1,-1,-1,57,-1,-1,59,61,63,-1,65,67,69,-1,-1,-1,-1,-1,-1,-1,-1,71,-1,-1,73,-1,-1,-1,-1,-1,-1,75,-1,77,79,-1,-1,81,-1,-1,83,85,87,-1,89,91,93,95,-1,-1,-1,97,-1,99,101,-1,-1,103,-1,-1,-1,-1,105,107,109,-1,-1,-1,-1,-1,-1],"loss_changes":[6.402743E5,4.7358797E4,2.8096531E4,7.5245625E3,3.4956494E3,3.1329941E3,4.3201594E4,2.1274766E3,3.6553281E3,1.0859761E3,1.0610361E3,9.451914E2,0E0,0E0,4.9765312E3,0E0,1.785375E3,1.5296191E3,2.0756719E3,0E0,3.505552E2,0E0,2.1061548E2,1.0859492E3,1.5012081E3,0E0,0E0,1.9252656E3,8.941094E2,0E0,0E0,1.4434521E3,2.3629844E3,6.158661E0,1.1421738E1,2.4800781E1,6.938745E1,0E0,0E0,0E0,0E0,0E0,0E0,5.1259766E0,0E0,0E0,8.261029E1,5.658594E2,2.7150781E3,0E0,5.41523E0,2.632203E-1,1.1540985E-1,0E0,0E0,0E0,0E0,0E0,0E0,0E0,0E0,5.150625E2,0E0,0E0,2.6081152E3,0E0,0E0,0E0,0E0,0E0,0E0,2.6142188E2,0E0,1.4448848E3,7.788633E2,0E0,0E0,5.8184375E2,0E0,0E0,3.6094275E2,5.730117E2,1.6927454E2,0E0,3.1244458E2,4.0538477E2,1.5352637E2,8.118109E1,0E0,0E0,0E0,1.327998E2,0E0,1.5536897E2,1.9056274E1,0E0,0E0,5.731543E1,0E0,0E0,0E0,0E0,2.6482788E1,1.40130005E1,2.4986328E1,0E0,0E0,0E0,0E0,0E0,0E0],"parents":[2147483647,0,0,1,1,2,2,3,3,4,4,5,5,6,6,7,7,8,8,9,9,10,10,11,11,14,14,16,16,17,17,18,18,20,20,22,22,23,23,24,24,27,27,28,28,31,31,32,32,33,33,34,34,35,35,36,36,43,43,46,46,47,47,48,48,50,50,51,51,52,52,61,61,64,64,71,71,73,73,74,74,77,77,80,80,81,81,82,82,84,84,85,85,86,86,87,87,91,91,93,93,94,94,97,97,102,102,103,103,104,104],"right_children":[2,4,6,8,10,12,14,16,18,20,22,24,-1,-1,26,-1,28,30,32,-1,34,-1,36,38,40,-1,-1,42,44,-1,-1,46,48,50,52,54,56,-1,-1,-1,-1,-1,-1,58,-1,-1,60,62,64,-1,66,68,70,-1,-1,-1,-1,-1,-1,-1,-1,72,-1,-1,74,-1,-1,-1,-1,-1,-1,76,-1,78,80,-1,-1,82,-1,-1,84,86,88,-1,90,92,94,96,-1,-1,-1,98,-1,100,102,-1,-1,104,-1,-1,-1,-1,106,108,110,-1,-1,-1,-1,-1,-1],"split_conditions":[1.574E3,9.465E2,2.0685E2,1.025E2,1.4125E3,1.07E1,2.112E2,4.75E-1,2.464E2,9.9E0,1.47E3,2.1131E3,2.4694028E0,3.63555E1,2.1436E3,-3.692204E0,2.981E2,3E-1,2.365E2,-4.502468E0,8.727E2,6.5040565E0,1.0924E3,2.1824E3,1.48E1,1.1250877E1,1.5933249E1,3.31E1,3.05E1,-1.0097715E1,-3.593779E0,1.13375E2,3.416E2,1.509E2,8.78E2,1.492E3,1.573E3,9.62106E0,1.6329297E0,-1.1703583E0,5.5014257E0,-7.620191E0,6.056717E-2,3.938E2,-1.481583E1,2.9768937E0,4.5E0,4.312E2,3.171E2,-1.1854225E0,1.517E2,9.5E0,5.6E1,6.7302215E-1,2.6887822E0,1.284712E0,-1.1344055E-1,-2.1055114E0,-7.5678263E0,-3.1702483E0,-5.764789E-1,8.11E1,-1.740366E0,-7.523119E0,4.917E2,-7.581207E-2,-6.2490356E-1,2.581543E-1,8.782572E-2,2.0523164E-1,7.413246E-1,1.0805E2,-2.3962657E0,2.01E2,1.452E2,-1.3375438E0,-6.033928E0,1.15E1,2.0717247E0,-7.3669987E0,1.519E2,3.645E2,2.00625E2,-4.7807314E-2,6.222E2,1.625E0,3.362E2,2.9225E1,2.8507477E-1,-5.14856E-1,-4.599921E0,7.64E1,-3.130873E-1,1.25E-1,7.5E-2,-1.690532E-1,-1.9823997E0,4.73E1,-9.310416E-1,7.373714E-1,-1.4177294E0,-9.82439E-1,4.15E0,4.59E1,8.7E0,-2.7657166E0,-6.850946E-1,-2.634092E0,-6.754242E-1,-1.3237516E0,-4.775564E0],"split_indices":[5,4,2,1,4,8,2,0,9,0,4,11,0,0,9,0,10,0,11,0,9,0,9,10,0,0,0,6,3,0,0,1,11,1,10,4,5,0,0,0,0,0,0,10,0,0,0,9,9,0,1,8,1,0,0,0,0,0,0,0,0,2,0,0,9,0,0,0,0,0,0,1,0,1,1,0,0,8,0,0,1,10,1,0,9,0,9,2,0,0,0,3,0,0,0,0,0,3,0,0,0,0,0,3,8,0,0,0,0,0,0],"split_type":[0,0,0,0,0,0,0,0,0,0,0,0,0,0,0,0,0,0,0,0,0,0,0,0,0,0,0,0,0,0,0,0,0,0,0,0,0,0,0,0,0,0,0,0,0,0,0,0,0,0,0,0,0,0,0,0,0,0,0,0,0,0,0,0,0,0,0,0,0,0,0,0,0,0,0,0,0,0,0,0,0,0,0,0,0,0,0,0,0,0,0,0,0,0,0,0,0,0,0,0,0,0,0,0,0,0,0,0,0,0,0],"sum_hessian":[2.89E2,2.11E2,7.8E1,1.76E2,3.5E1,1.8E1,6E1,2.5E1,1.51E2,1.7E1,1.8E1,1.3E1,5E0,2E0,5.8E1,4E0,2.1E1,1E1,1.41E2,1E0,1.6E1,1E0,1.7E1,1E1,3E0,3.1E1,2.7E1,1.3E1,8E0,7E0,3E0,4E0,1.37E2,8E0,8E0,9E0,8E0,9E0,1E0,1E0,2E0,1.2E1,1E0,4E0,4E0,1E0,3E0,8E1,5.7E1,5E0,3E0,4E0,4E0,1E0,8E0,7E0,1E0,1E0,3E0,2E0,1E0,7.8E1,2E0,6E0,5.1E1,1E0,2E0,2E0,2E0,1E0,3E0,7.5E1,3E0,4.1E1,1E1,1E0,7.4E1,4E1,1E0,6E0,4E0,3.1E1,9E0,1E0,3E0,2E1,1.1E1,8E0,1E0,1E0,2E0,1.9E1,1E0,2E0,9E0,1E0,7E0,1.8E1,1E0,1E0,1E0,2E0,7E0,4E0,1.4E1,6E0,1E0,3E0,1E0,1E0,1.3E1],"tree_param":{"num_deleted":"0","num_feature":"12","num_nodes":"111","size_leaf_vector":"1"}},{"base_weights":[2.191636E0,-2.2401115E1,6.6575134E1,-2.8494915E1,7.5348396E0,3.0838705E1,7.328187E1,-4.1626217E1,-2.5108282E1,1.0324813E1,4.455555E0,7.826646E0,2.3202017E1,1.2905815E2,6.7005875E1,-3.668675E1,-1.2234944E1,-4.032443E1,-2.3088984E1,-4.0333986E0,1.3640194E1,2.6896704E1,3.1523845E0,8.733418E0,3.2235214E1,1.8098536E1,6.040838E1,-3.84922E1,-2.3756123E0,-4.708462E1,-1.6035076E1,2.7238574E0,-2.3506668E1,-4.119761E0,-1.6947471E0,5.951214E0,1.0324072E1,5.2607684E0,2.2247546E0,-1.0708734E0,1.8747314E0,8.071472E-1,6.1301582E1,-3.2142532E0,-6.7945633E0,-1.4563358E0,-4.9807465E1,-5.2747834E-1,-3.1437147E0,-2.7546795E1,-1.8040974E1,-5.4226413E0,1.5094161E0,5.9325223E0,1.3568501E1,5.5287437E0,1.06862E1,-8.808839E0,-2.5257826E0,-2.8217758E1,-1.4875844E0,-1.8736534E1,1.8956287E0,-1.0826087E0,-2.6485138E0,-4.5700988E-1,2.1980164E0,1.1605452E0,-1.0380127E-1,6.3080055E-1,2.6953437E0,-2.8641003E1,-1.5431256E0,-4.5295143E0,-1.58600025E1,-6.936859E-2,-5.5408406E-1,7.58667E-1,5.925575E-1,-1.7364756E1,-5.004681E0,-1.7360823E1,-7.927741E0,-7.3228456E-2,1.0827026E0,-4.6359344E0,-7.948535E0,-4.112854E0,-1.8408794E1,-9.302303E0,2.6084426E-1,2.074054E-1,4.533783E-2,-5.839219E-1,-1.6681631E0,-1.0754976E0,2.148761E-1,-7.1432137E0,-2.0104818E1,-2.0034373E0,-6.584867E-1,6.746953E-1,-1.0159375E1,-1.7003603E1,-4.6618094E0,-2.485918E0,-9.159082E-1,-3.045473E0,-1.3936571E0],"categories":[],"categories_nodes":[],"categories_segments":[],"categories_sizes":[],"default_left":[0,0,0,0,0,0,0,0,0,0,0,0,0,0,0,0,0,0,0,0,0,0,0,0,0,0,0,0,0,0,0,0,0,0,0,0,0,0,0,0,0,0,0,0,0,0,0,0,0,0,0,0,0,0,0,0,0,0,0,0,0,0,0,0,0,0,0,0,0,0,0,0,0,0,0,0,0,0,0,0,0,0,0,0,0,0,0,0,0,0,0,0,0,0,0,0,0,0,0,0,0,0,0,0,0,0,0,0,0],"id":16,"left_children":[1,3,5,7,9,11,13,15,17,-1,19,-1,21,23,25,27,-1,29,31,33,35,37,39,-1,-1,-1,41,43,-1,45,47,-1,49,-1,51,-1,53,-1,-1,-1,-1,-1,55,-1,-1,-1,57,-1,-1,59,61,63,65,67,69,-1,-1,-1,-1,71,-1,73,-1,-1,75,-1,77,-1,-1,-1,-1,79,-1,-1,81,-1,-1,83,-1,85,-1,87,89,-1,91,-1,93,95,97,99,-1,-1,-1,-1,-1,-1,-1,101,103,-1,-1,-1,105,107,-1,-1,-1,-1,-1],"loss_changes":[4.812517E5,4.0347906E4,1.787275E4,7.0930312E3,5.9544023E3,6.730088E2,1.58559375E4,2.7554453E3,3.6163906E3,0E0,2.9398315E3,0E0,8.041367E2,1.8486703E4,1.04890625E4,8.153164E2,0E0,1.872207E3,2.5493672E3,9.037676E2,9.1398145E2,1.5418262E2,2.927748E2,0E0,0E0,0E0,2.5924688E3,1.1141797E2,0E0,8.318535E2,1.015177E2,0E0,2.4178672E3,0E0,2.3513588E2,0E0,1.617218E2,0E0,0E0,0E0,0E0,0E0,5.121406E2,0E0,0E0,0E0,2.5839844E0,0E0,0E0,6.8634375E2,1.4068984E3,6.743561E0,3.7704895E1,5.6826935E1,1.4402625E2,0E0,0E0,0E0,0E0,3.1519922E2,0E0,8.967285E2,0E0,0E0,4.1439705E0,0E0,1.5888855E1,0E0,0E0,0E0,0E0,1.0991797E2,0E0,0E0,3.9808887E2,0E0,0E0,2.7788723E0,0E0,4.3614502E2,0E0,4.3797656E2,1.3132965E2,0E0,2.3493528E-1,0E0,8.366852E0,5.560517E1,5.0601465E2,6.217401E1,0E0,0E0,0E0,0E0,0E0,0E0,0E0,2.4141415E2,1.918291E2,0E0,0E0,0E0,2.7711487E1,3.7628906E1,0E0,0E0,0E0,0E0,0E0],"parents":[2147483647,0,0,1,1,2,2,3,3,4,4,5,5,6,6,7,7,8,8,10,10,12,12,13,13,14,14,15,15,17,17,18,18,19,19,20,20,21,21,22,22,26,26,27,27,29,29,30,30,32,32,34,34,36,36,42,42,46,46,49,49,50,50,51,51,52,52,53,53,54,54,59,59,61,61,64,64,66,66,71,71,74,74,77,77,79,79,81,81,82,82,84,84,86,86,87,87,88,88,89,89,97,97,98,98,102,102,103,103],"right_children":[2,4,6,8,10,12,14,16,18,-1,20,-1,22,24,26,28,-1,30,32,34,36,38,40,-1,-1,-1,42,44,-1,46,48,-1,50,-1,52,-1,54,-1,-1,-1,-1,-1,56,-1,-1,-1,58,-1,-1,60,62,64,66,68,70,-1,-1,-1,-1,72,-1,74,-1,-1,76,-1,78,-1,-1,-1,-1,80,-1,-1,82,-1,-1,84,-1,86,-1,88,90,-1,92,-1,94,96,98,100,-1,-1,-1,-1,-1,-1,-1,102,104,-1,-1,-1,106,108,-1,-1,-1,-1,-1],"split_conditions":[1.602E3,9.465E2,2.903E3,1.105E2,8.69E1,7.057E2,3.00375E2,7.057E2,2.798E2,1.0324813E1,1.53425E2,7.826646E0,2.1119E3,1.6925E1,5.4E0,6.56E1,-1.2234944E1,1.4E0,1.13375E2,9.9E0,1.26E1,9.3E0,1.48E1,8.733418E0,3.2235214E1,1.8098536E1,1.6325E1,1.48E1,-2.3756123E0,2.112E2,1.217E2,2.7238574E0,3.416E2,-4.119761E0,1.449E2,5.951214E0,1.0962E3,5.2607684E0,2.2247546E0,-1.0708734E0,1.8747314E0,8.071472E-1,8.8E1,-3.2142532E0,-6.7945633E0,-1.4563358E0,1.1E1,-5.2747834E-1,-3.1437147E0,2.765E2,1.28025E2,1.509E2,8.727E2,1.6335E2,1.579E3,5.5287437E0,1.06862E1,-8.808839E0,-2.5257826E0,4.312E2,-1.4875844E0,4.88E1,1.8956287E0,-1.0826087E0,1.517E2,-4.5700988E-1,8.78E2,1.1605452E0,-1.0380127E-1,6.3080055E-1,2.6953437E0,5.025E1,-1.5431256E0,-4.5295143E0,1.15E1,-6.936859E-2,-5.5408406E-1,1.21E1,5.925575E-1,3.9175E1,-5.004681E0,7.2E1,2.00625E2,-7.3228456E-2,1.3425E1,-4.6359344E0,1E-1,1.075E0,8.6E0,3E-1,2.6084426E-1,2.074054E-1,4.533783E-2,-5.839219E-1,-1.6681631E0,-1.0754976E0,2.148761E-1,1.23825E2,6.323E2,-2.0034373E0,-6.584867E-1,6.746953E-1,5.275E1,1.201E2,-4.6618094E0,-2.485918E0,-9.159082E-1,-3.045473E0,-1.3936571E0],"split_indices":[4,4,4,1,3,11,7,9,10,0,2,0,9,0,8,7,0,0,1,0,0,8,0,0,0,0,0,2,0,10,1,0,11,0,2,0,11,0,0,0,0,0,1,0,0,0,8,0,0,4,7,1,9,2,4,0,0,0,0,9,0,2,0,0,1,0,10,0,0,0,0,5,0,0,8,0,0,0,0,3,0,4,1,0,0,0,0,0,8,0,0,0,0,0,0,0,0,1,9,0,0,0,2,2,0,0,0,0,0],"split_type":[0,0,0,0,0,0,0,0,0,0,0,0,0,0,0,0,0,0,0,0,0,0,0,0,0,0,0,0,0,0,0,0,0,0,0,0,0,0,0,0,0,0,0,0,0,0,0,0,0,0,0,0,0,0,0,0,0,0,0,0,0,0,0,0,0,0,0,0,0,0,0,0,0,0,0,0,0,0,0,0,0,0,0,0,0,0,0,0,0,0,0,0,0,0,0,0,0,0,0,0,0,0,0,0,0,0,0,0,0],"sum_hessian":[3.02E2,2.19E2,8.3E1,1.82E2,3.7E1,1.4E1,6.9E1,3.5E1,1.47E2,1E0,3.6E1,3E0,1.1E1,5E0,6.4E1,3.2E1,3E0,1.5E1,1.32E2,1.9E1,1.7E1,9E0,2E0,3E0,2E0,7E0,5.7E1,2.9E1,3E0,1.1E1,4E0,1E0,1.31E2,1E0,1.8E1,1E0,1.6E1,6E0,3E0,1E0,1E0,1E0,5.6E1,3E0,2.6E1,1E0,1E1,1E0,3E0,7.3E1,5.8E1,8E0,1E1,8E0,8E0,4E0,5.2E1,9E0,1E0,7E1,3E0,5.7E1,1E0,5E0,3E0,1E0,9E0,7E0,1E0,2E0,6E0,6.8E1,2E0,1.3E1,4.4E1,1E0,2E0,5E0,4E0,6E0,6.2E1,3.6E1,8E0,1E0,4E0,2E0,4E0,3E0,3.3E1,7E0,1E0,3E0,1E0,2E0,2E0,2E0,1E0,5E0,2.8E1,4E0,3E0,1E0,4E0,2.2E1,6E0,1E0,3E0,1.9E1,3E0],"tree_param":{"num_deleted":"0","num_feature":"12","num_nodes":"109","size_leaf_vector":"1"}},{"base_weights":[1.7089657E0,-1.6430624E1,6.1468895E1,-2.3427925E1,9.136711E0,8.2714424E1,5.4301086E1,-2.263246E1,-1.0859074E1,9.447203E0,7.096575E0,1.0572959E2,3.8019268E1,4.38851E1,6.3149746E1,-3.2667824E1,-2.0190615E1,-3.6491761E0,1.3800395E1,2.252899E1,5.5093427E0,7.3854125E-1,7.294308E0,8.149698E0,5.0233216E0,2.4618354E0,1.0950708E1,-1.521888E1,-3.5151474E1,-3.7880234E1,-1.9183496E1,-3.769582E0,-1.5071315E0,4.9397397E0,1.174622E1,-4.1015835E0,2.4923303E0,-9.025232E-1,-3.6027676E1,-2.9590905E0,-8.310279E0,-2.1135492E1,-1.5247826E1,-4.6903687E0,1.2343472E0,8.608623E0,1.5473765E1,-6.2747693E0,-1.0364771E0,-1.2356069E1,-2.2936731E1,2.7658184E0,-1.6039522E1,-1.7413484E-1,-8.534993E-1,-4.1816223E-1,1.8497375E0,1.132074E1,4.6386447E0,1.7928434E1,-9.79845E-1,-5.4200974E0,-2.2481153E1,-2.0756956E1,-3.393023E1,-1.0292165E0,1.7345002E0,-1.3865232E1,-2.2290228E1,4.6704102E-1,2.693695E0,4.8406005E-1,1.1945842E1,5.3581543E0,-9.498169E-2,7.7722293E-1,3.1971724E0,6.160114E-1,-7.5911956E0,-9.6638733E-1,-4.136633E0,-2.204245E1,-8.681824E0,-1.248702E0,-6.0952125E0,-1.5901237E1,-8.570052E0,-6.194462E0,-1.2430058E1,-6.700287E-2,1.3274765E-1,1.541801E-1,5.712572E-1,5.621964E-1,2.144093E0,9.6761316E-1,2.5689882E-1,8.895325E-2,-8.5509405E0,-2.2741005E1,-1.4224039E0,-4.903704E-1,-1.0133499E1,-1.692137E1,-5.80513E0,-3.4331012E0,-1.248271E1,-3.5675838E0,-3.099463E0,-1.5919901E0,-1.7530035E0,-2.3648542E1,-1.4573963E0,-5.93039E-1,2.3032594E-1,-4.647478E-1,-1.8813348E0,-7.695703E0,-3.124892E0,2.386734E-1,-1.4749451E0,7.403056E-1,-8.925893E-1,-1.4100575E1,-2.3591858E-1,3.660783E-1,-1.2442595E0,-4.002092E-1,-5.748291E-3,-2.4028345E1,-3.3139312E-1,-3.657895E-1,-1.4524422E0,-4.2856935E-1,6.1734724E-1,-2.7354643E0,-3.5263276E-1,-4.171277E0,-7.542572E0,-3.4117767E-1,-1.5821782E0],"categories":[],"categories_nodes":[],"categories_segments":[],"categories_sizes":[],"default_left":[0,0,0,0,0,0,0,0,0,0,0,0,0,0,0,0,0,0,0,0,0,0,0,0,0,0,0,0,0,0,0,0,0,0,0,0,0,0,0,0,0,0,0,0,0,0,0,0,0,0,0,0,0,0,0,0,0,0,0,0,0,0,0,0,0,0,0,0,0,0,0,0,0,0,0,0,0,0,0,0,0,0,0,0,0,0,0,0,0,0,0,0,0,0,0,0,0,0,0,0,0,0,0,0,0,0,0,0,0,0,0,0,0,0,0,0,0,0,0,0,0,0,0,0,0,0,0,0,0,0,0,0,0,0,0,0,0,0,0,0,0],"id":17,"left_children":[1,3,5,7,9,11,13,15,-1,-1,17,19,21,23,25,27,29,31,33,-1,-1,-1,-1,-1,-1,-1,-1,35,37,39,41,-1,43,-1,45,-1,-1,-1,47,-1,-1,49,51,53,55,57,59,-1,-1,61,63,65,67,-1,-1,-1,69,71,73,75,-1,77,79,81,83,-1,-1,85,87,89,91,-1,93,95,-1,-1,-1,-1,97,-1,-1,99,101,-1,-1,103,105,-1,107,-1,-1,-1,-1,-1,-1,-1,-1,-1,109,111,113,-1,115,117,119,121,123,-1,125,127,-1,129,-1,-1,-1,-1,-1,131,-1,-1,-1,133,-1,135,-1,-1,-1,-1,-1,137,-1,-1,-1,-1,-1,-1,-1,-1,139,-1,-1],"loss_changes":[3.3055225E5,4.207721E4,6.3206875E3,4.4746484E3,4.437059E3,1.2438906E4,2.3900469E3,3.800289E3,0E0,0E0,3.6522395E3,1.5350922E4,9.6591406E2,2.690078E2,7.926094E2,9.384961E2,1.9278438E3,7.602013E2,6.302368E2,0E0,0E0,0E0,0E0,0E0,0E0,0E0,0E0,1.9507418E3,5.6702344E2,7.261279E2,7.763164E2,0E0,1.7159833E2,0E0,2.059624E2,0E0,0E0,0E0,5.147461E2,0E0,0E0,1.1872773E3,7.716904E2,5.7525635E0,2.9556559E1,1.4129407E2,7.2890967E2,0E0,0E0,1.1422415E3,1.1169297E3,2.5855783E2,3.568916E2,0E0,0E0,0E0,1.0411308E1,1.8952026E1,3.6649643E1,4.3082275E1,0E0,2.6312442E2,7.942285E1,8.3311523E2,2.9927148E2,0E0,0E0,2.8418506E2,1.0815688E3,1.65907E0,4.099106E0,0E0,1.0108276E1,1.6681824E0,0E0,0E0,0E0,0E0,8.2352356E1,0E0,0E0,8.175039E2,3.8095886E1,0E0,0E0,1.7985303E2,2.1843433E2,0E0,5.735956E2,0E0,0E0,0E0,0E0,0E0,0E0,0E0,0E0,0E0,9.3866394E1,5.301719E2,2.1940351E1,0E0,1.1177063E1,1.818833E2,9.497067E1,5.6980927E1,1.0608276E2,0E0,1.2658897E2,3.4832382E0,0E0,3.8995703E2,0E0,0E0,0E0,0E0,0E0,5.124939E0,0E0,0E0,0E0,3.744161E1,0E0,1.1024414E2,0E0,0E0,0E0,0E0,0E0,2.5091406E2,0E0,0E0,0E0,0E0,0E0,0E0,0E0,0E0,1.0622238E1,0E0,0E0],"parents":[2147483647,0,0,1,1,2,2,3,3,4,4,5,5,6,6,7,7,10,10,11,11,12,12,13,13,14,14,15,15,16,16,17,17,18,18,27,27,28,28,29,29,30,30,32,32,34,34,38,38,41,41,42,42,43,43,44,44,45,45,46,46,49,49,50,50,51,51,52,52,56,56,57,57,58,58,59,59,61,61,62,62,63,63,64,64,67,67,68,68,69,69,70,70,72,72,73,73,78,78,81,81,82,82,85,85,86,86,88,88,98,98,99,99,100,100,102,102,103,103,104,104,105,105,106,106,108,108,109,109,111,111,117,117,121,121,123,123,129,129,138,138],"right_children":[2,4,6,8,10,12,14,16,-1,-1,18,20,22,24,26,28,30,32,34,-1,-1,-1,-1,-1,-1,-1,-1,36,38,40,42,-1,44,-1,46,-1,-1,-1,48,-1,-1,50,52,54,56,58,60,-1,-1,62,64,66,68,-1,-1,-1,70,72,74,76,-1,78,80,82,84,-1,-1,86,88,90,92,-1,94,96,-1,-1,-1,-1,98,-1,-1,100,102,-1,-1,104,106,-1,108,-1,-1,-1,-1,-1,-1,-1,-1,-1,110,112,114,-1,116,118,120,122,124,-1,126,128,-1,130,-1,-1,-1,-1,-1,132,-1,-1,-1,134,-1,136,-1,-1,-1,-1,-1,138,-1,-1,-1,-1,-1,-1,-1,-1,140,-1,-1],"split_conditions":[1.8945E2,9.465E2,2.095E3,1.8051E3,8.69E1,1.173E2,2.1457E3,2.865E2,-1.0859074E1,9.447203E0,1.4125E3,1.8475E1,4.376E2,1.705E1,2.462E3,2.225E2,4E-1,9.9E0,6.356E2,2.252899E1,5.5093427E0,7.3854125E-1,7.294308E0,8.149698E0,5.0233216E0,2.4618354E0,1.0950708E1,2.546E2,-7.9925E1,3.254E2,3.57E2,-3.769582E0,1.449E2,4.9397397E0,1.574E3,-4.1015835E0,2.4923303E0,-9.025232E-1,4.856E2,-2.9590905E0,-8.310279E0,9E0,3.585E2,1.12E1,8.727E2,1.0924E3,2.107E3,-6.2747693E0,-1.0364771E0,3.488E2,6.88E1,1.25E-1,6.651E2,-1.7413484E-1,-8.534993E-1,-4.1816223E-1,8.752E2,8.935E1,1.573E3,1.579E3,-9.79845E-1,1.02925E2,8.5075E1,6.4125E1,4.5675E1,-1.0292165E0,1.7345002E0,7.1975E1,7.278E2,1.21E1,5.6E1,4.8406005E-1,1.492E3,1.517E2,-9.498169E-2,7.7722293E-1,3.1971724E0,6.160114E-1,7.5E-2,-9.6638733E-1,-4.136633E0,7.64E1,4.73E1,-1.248702E0,-6.0952125E0,2.00475E2,4.102E2,-6.194462E0,8.4E0,-6.700287E-2,1.3274765E-1,1.541801E-1,5.712572E-1,5.621964E-1,2.144093E0,9.6761316E-1,2.5689882E-1,8.895325E-2,5.26E1,2.525E2,9.25E-1,-4.903704E-1,6.4325E1,4.26E1,2.00675E2,1.23825E2,1.25E1,-3.5675838E0,1.2765E2,1E-1,-1.7530035E0,1.24E1,-1.4573963E0,-5.93039E-1,2.3032594E-1,-4.647478E-1,-1.8813348E0,1.25E0,-3.124892E0,2.386734E-1,-1.4749451E0,7.5E-2,-8.925893E-1,1.52E2,-2.3591858E-1,3.660783E-1,-1.2442595E0,-4.002092E-1,-5.748291E-3,1.625E0,-3.3139312E-1,-3.657895E-1,-1.4524422E0,-4.2856935E-1,6.1734724E-1,-2.7354643E0,-3.5263276E-1,-4.171277E0,1.7E0,-3.4117767E-1,-1.5821782E0],"split_indices":[2,4,11,11,3,1,11,11,0,0,4,0,11,0,5,11,6,0,11,0,0,0,0,0,0,0,0,10,2,9,10,0,2,0,5,0,0,0,10,0,0,8,10,0,9,9,11,0,0,11,2,0,10,0,0,0,10,1,5,4,0,1,1,2,3,0,0,2,11,0,1,0,4,1,0,0,0,0,0,0,0,3,3,0,0,1,9,0,0,0,0,0,0,0,0,0,0,0,3,5,0,0,2,3,1,1,0,0,2,0,0,8,0,0,0,0,0,5,0,0,0,0,0,1,0,0,0,0,0,0,0,0,0,0,0,0,0,0,0,0,0],"split_type":[0,0,0,0,0,0,0,0,0,0,0,0,0,0,0,0,0,0,0,0,0,0,0,0,0,0,0,0,0,0,0,0,0,0,0,0,0,0,0,0,0,0,0,0,0,0,0,0,0,0,0,0,0,0,0,0,0,0,0,0,0,0,0,0,0,0,0,0,0,0,0,0,0,0,0,0,0,0,0,0,0,0,0,0,0,0,0,0,0,0,0,0,0,0,0,0,0,0,0,0,0,0,0,0,0,0,0,0,0,0,0,0,0,0,0,0,0,0,0,0,0,0,0,0,0,0,0,0,0,0,0,0,0,0,0,0,0,0,0,0,0],"sum_hessian":[3.03E2,2.33E2,7E1,1.83E2,5E1,1.5E1,5.5E1,1.81E2,2E0,1E0,4.9E1,9E0,6E0,2.8E1,2.7E1,3.3E1,1.48E2,1.9E1,3E1,6E0,3E0,1E0,5E0,2E1,8E0,1E0,2.6E1,5E0,2.8E1,6E0,1.42E2,1E0,1.8E1,2E0,2.8E1,4E0,1E0,1E0,2.7E1,3E0,3E0,9.2E1,5E1,8E0,1E1,1.7E1,1.1E1,2.6E1,1E0,1.7E1,7.5E1,2E0,4.8E1,1E0,7E0,1E0,9E0,9E0,8E0,1E1,1E0,1.1E1,6E0,6.5E1,1E1,1E0,1E0,3.8E1,1E1,4E0,5E0,1E0,8E0,7E0,1E0,1E0,9E0,2E0,9E0,1E0,5E0,5.8E1,7E0,1E0,9E0,2.6E1,1.2E1,3E0,7E0,1E0,3E0,2E0,3E0,1E0,7E0,6E0,1E0,1E0,8E0,5.6E1,2E0,2E0,5E0,2.3E1,3E0,6E0,6E0,3E0,4E0,2E0,6E0,5.2E1,4E0,1E0,1E0,1E0,4E0,4E0,1.9E1,1E0,2E0,2E0,4E0,5E0,1E0,2E0,2E0,1E0,1E0,5.1E1,1E0,1E0,3E0,1E0,1E0,4E0,1E0,4.9E1,2E0,1E0,1E0],"tree_param":{"num_deleted":"0","num_feature":"12","num_nodes":"141","size_leaf_vector":"1"}},{"base_weights":[1.1207756E-2,-1.5331143E1,4.81114E1,-2.0519466E1,4.984919E0,2.4825577E1,5.3610752E1,-1.9815239E1,-9.628379E0,8.644195E0,2.927228E0,2.7023386E1,1.0699707E0,2.6028606E1,4.743344E1,-2.7623835E1,-1.8040962E1,-4.2381825E0,1.1262384E1,3.611416E1,1.977566E1,1.3332992E1,4.2944805E1,-3.41266E1,-1.3942014E1,2.2804813E0,-1.8338116E1,-3.245144E0,-1.471149E0,5.0254903E0,8.983288E0,1.5443708E0,6.902074E0,-8.9655703E-1,2.3144924E1,3.6864494E1,8.4252825E0,-2.330036E0,-3.6768566E1,-1.757033E1,-2.292801E0,-2.9302114E1,-1.709294E1,1.9255911E0,-3.229402E0,6.085424E0,1.1562396E1,1.0332708E0,4.168149E0,3.7542316E1,1.4050318E0,-2.6121132E0,-6.542217E0,-6.274457E-1,-3.203464E0,-8.842433E-1,4.1055298E-1,-3.2421314E1,-1.1998503E0,-8.807171E0,-1.767146E1,-5.7930813E0,8.3251274E-1,6.731595E0,-8.690918E-2,9.731732E-1,2.4650345E0,3.8525646E0,6.854078E0,2.3870194E-1,-1.3401093E-1,-2.998334E0,-6.393477E0,-3.3469787E-1,-9.294126E0,-2.0010908E1,-1.4502971E1,-2.4686382E0,-7.5622787E0,-3.8261932E-1,1.4992523E0,1.4446286E0,7.6642007E-1,-9.889256E0,-3.3472642E-1,-9.997871E0,-2.0949867E1,-2.708957E1,-1.2804432E1,9.0789795E-3,-5.0723374E-1,-1.8115762E0,-8.083284E-1,5.092061E-1,5.06531E-1,-3.6619157E-1,-1.7997721E0,-3.8245227E0,-2.081899E0,-2.1425589E1,-8.4576645E0,-1.0037901E0,-5.1247563E0,-1.1959492E1,-4.823011E0,-6.1306458E-2,7.5529784E-1,2.5960286E0,-8.618779E-1,-2.1625032E1,-8.040163E-1,-3.1217682E-1,-1.7089527E0,-1.2723166E1,-2.236316E0,1.6549683E-1,4.850423E-2,8.139175E-2,5.8059555E-1,-1.0059302E0,-2.1790974E1,-1.5031341E1,-9.560746E0,-9.5821106E-1,3.245882E-1,-3.8028572E0,-1.2950185E1,-3.9368057E0,-1.6307287E1,-1.4494995E0,-1.1192087E1,-2.413472E0,-5.7091475E-1,-1.2927871E0,-1.7932129E-1,-1.7915983E1,-1.7120436E0,5.6487334E-1,-5.9045535E-1,-1.3782265E1,-5.90781E0,-2.5647599E-1,2.1074906E-1,-2.0259883E0,-3.727033E0,-1.6249564E0,-3.0232337E0,1.24416605E-1,-1.401312E0],"categories":[],"categories_nodes":[],"categories_segments":[],"categories_sizes":[],"default_left":[0,0,0,0,0,0,0,0,0,0,0,0,0,0,0,0,0,0,0,0,0,0,0,0,0,0,0,0,0,0,0,0,0,0,0,0,0,0,0,0,0,0,0,0,0,0,0,0,0,0,0,0,0,0,0,0,0,0,0,0,0,0,0,0,0,0,0,0,0,0,0,0,0,0,0,0,0,0,0,0,0,0,0,0,0,0,0,0,0,0,0,0,0,0,0,0,0,0,0,0,0,0,0,0,0,0,0,0,0,0,0,0,0,0,0,0,0,0,0,0,0,0,0,0,0,0,0,0,0,0,0,0,0,0,0,0,0,0,0,0,0,0,0,0,0,0,0,0,0],"id":18,"left_children":[1,3,5,7,9,11,13,15,-1,-1,17,19,-1,-1,21,23,25,27,29,31,33,-1,35,37,39,-1,41,-1,43,-1,45,-1,-1,-1,47,49,-1,-1,51,53,55,57,59,-1,61,63,65,-1,-1,67,-1,-1,-1,-1,-1,-1,69,71,-1,73,75,77,79,81,-1,-1,-1,-1,-1,-1,-1,-1,-1,-1,83,85,87,89,91,-1,93,-1,-1,95,-1,97,99,101,103,-1,-1,-1,-1,105,-1,-1,-1,-1,107,109,111,-1,-1,113,-1,-1,115,117,-1,119,-1,-1,-1,121,123,-1,-1,-1,-1,-1,125,127,129,-1,-1,-1,131,133,135,137,139,-1,-1,-1,141,143,-1,-1,-1,145,147,-1,-1,-1,-1,-1,-1,-1,-1],"loss_changes":[2.2581848E5,2.455655E4,8.145297E3,3.5832578E3,4.381035E3,4.815791E2,2.9000938E4,2.0370312E3,0E0,0E0,2.8547988E3,2.0824316E2,0E0,0E0,4.5622344E3,2.3712344E3,1.6667617E3,1.0403335E3,6.51969E2,2.374751E2,9.660486E2,0E0,2.6470312E2,6.290039E2,4.6691895E2,0E0,1.5606055E3,0E0,5.541345E2,0E0,8.658972E1,0E0,0E0,0E0,6.1961914E1,2.9066406E2,0E0,0E0,6.942383E1,8.953906E1,3.3587692E1,7.4254785E2,5.058672E2,0E0,2.2350522E2,5.4592224E1,8.849768E1,0E0,0E0,3.254336E2,0E0,0E0,0E0,0E0,0E0,0E0,4.6803284E0,2.569707E2,0E0,1.8331299E1,6.5858594E2,5.7792206E1,2.1875679E1,4.882904E0,0E0,0E0,0E0,0E0,0E0,0E0,0E0,0E0,0E0,0E0,2.4122498E1,4.5807617E2,8.9310547E2,7.953823E0,1.8820587E1,0E0,1.0207626E1,0E0,0E0,2.5762451E1,0E0,7.4471735E2,1.991289E2,2.1045459E2,3.5778516E2,0E0,0E0,0E0,0E0,1.5567316E0,0E0,0E0,0E0,0E0,9.7026596E1,1.0084961E2,2.3783997E1,0E0,0E0,3.5766504E2,0E0,0E0,2.3501587E-1,3.5684662E0,0E0,2.7453125E1,0E0,0E0,0E0,2.0666113E2,8.124283E1,0E0,0E0,0E0,0E0,0E0,1.2199219E1,3.038579E2,2.8811792E2,0E0,0E0,0E0,2.4071838E1,5.376349E1,5.0319336E1,5.9830868E1,1.7863403E2,0E0,0E0,0E0,7.5294895E0,1.4740332E2,0E0,0E0,0E0,3.2824707E1,1.3007254E2,0E0,0E0,0E0,0E0,0E0,0E0,0E0,0E0],"parents":[2147483647,0,0,1,1,2,2,3,3,4,4,5,5,6,6,7,7,10,10,11,11,14,14,15,15,16,16,17,17,18,18,19,19,20,20,22,22,23,23,24,24,26,26,28,28,30,30,34,34,35,35,38,38,39,39,40,40,41,41,42,42,44,44,45,45,46,46,49,49,56,56,57,57,59,59,60,60,61,61,62,62,63,63,74,74,75,75,76,76,77,77,78,78,80,80,83,83,85,85,86,86,87,87,88,88,93,93,98,98,99,99,100,100,103,103,106,106,107,107,109,109,113,113,114,114,120,120,121,121,122,122,126,126,127,127,128,128,129,129,130,130,134,134,135,135,139,139,140,140],"right_children":[2,4,6,8,10,12,14,16,-1,-1,18,20,-1,-1,22,24,26,28,30,32,34,-1,36,38,40,-1,42,-1,44,-1,46,-1,-1,-1,48,50,-1,-1,52,54,56,58,60,-1,62,64,66,-1,-1,68,-1,-1,-1,-1,-1,-1,70,72,-1,74,76,78,80,82,-1,-1,-1,-1,-1,-1,-1,-1,-1,-1,84,86,88,90,92,-1,94,-1,-1,96,-1,98,100,102,104,-1,-1,-1,-1,106,-1,-1,-1,-1,108,110,112,-1,-1,114,-1,-1,116,118,-1,120,-1,-1,-1,122,124,-1,-1,-1,-1,-1,126,128,130,-1,-1,-1,132,134,136,138,140,-1,-1,-1,142,144,-1,-1,-1,146,148,-1,-1,-1,-1,-1,-1,-1,-1],"split_conditions":[1.71075E2,7.4475E2,2.0685E2,1.8051E3,8.69E1,1.76925E2,2.112E2,2.798E2,-9.628379E0,8.644195E0,1.4125E3,7.057E2,1.0699707E0,2.6028606E1,4.8E0,1.4E0,2.225E2,3.512E2,1.47E3,1.4E1,1.48E1,1.3332992E1,2.1424E3,1.48E1,5.73E1,2.2804813E0,3.05E1,-3.245144E0,1.19775E2,5.0254903E0,1.0962E3,1.5443708E0,6.902074E0,-8.9655703E-1,1.62E1,2.1396E3,8.4252825E0,-2.330036E0,0E0,1.45E0,8.5075E1,1.517E2,4.32E1,1.9255911E0,1.449E2,1.6335E2,1.542E3,1.0332708E0,4.168149E0,8.8E0,1.4050318E0,-2.6121132E0,-6.542217E0,-6.274457E-1,-3.203464E0,-8.842433E-1,2.7E0,2.585E2,-1.1998503E0,8.935E1,3.416E2,7.871E2,8.727E2,1.6315E2,-8.690918E-2,9.731732E-1,2.4650345E0,3.8525646E0,6.854078E0,2.3870194E-1,-1.3401093E-1,-2.998334E0,-6.393477E0,-3.3469787E-1,2.00825E2,1.382E2,1.105E2,1.01E1,9.465E2,-3.8261932E-1,8.78E2,1.4446286E0,7.6642007E-1,3.048E2,-3.3472642E-1,3.35E1,1.625E0,4.75E-1,1.2765E2,9.0789795E-3,-5.0723374E-1,-1.8115762E0,-8.083284E-1,1.21E1,5.06531E-1,-3.6619157E-1,-1.7997721E0,-3.8245227E0,2.981E2,4.254E2,1.7E0,-1.0037901E0,-5.1247563E0,8.4E0,-4.823011E0,-6.1306458E-2,9.5E0,7.5E-2,-8.618779E-1,1.25E0,-8.040163E-1,-3.1217682E-1,-1.7089527E0,4.06E1,6.323E2,1.6549683E-1,4.850423E-2,8.139175E-2,5.8059555E-1,-1.0059302E0,6.815E1,3.428E2,8.6E0,-9.5821106E-1,3.245882E-1,-3.8028572E0,1.87475E2,9.25E-1,2.525E2,1.23825E2,1.15E1,-2.413472E0,-5.7091475E-1,-1.2927871E0,1.3E0,3.652E2,-1.7120436E0,5.6487334E-1,-5.9045535E-1,6.88E1,6.79E1,-2.5647599E-1,2.1074906E-1,-2.0259883E0,-3.727033E0,-1.6249564E0,-3.0232337E0,1.24416605E-1,-1.401312E0],"split_indices":[2,5,2,11,3,1,2,10,0,0,4,11,0,0,8,0,11,9,4,0,0,0,11,2,3,0,3,0,6,0,11,0,0,0,0,11,0,0,7,0,1,1,3,0,2,2,5,0,0,8,0,0,0,0,0,0,0,9,0,1,11,11,9,3,0,0,0,0,0,0,0,0,0,0,1,1,1,8,4,0,10,0,0,10,0,6,0,0,2,0,0,0,0,0,0,0,0,0,11,9,0,0,0,0,0,0,8,0,0,4,0,0,0,6,9,0,0,0,0,0,7,11,8,0,0,0,1,0,5,1,8,0,0,0,0,11,0,0,0,2,2,0,0,0,0,0,0,0,0],"split_type":[0,0,0,0,0,0,0,0,0,0,0,0,0,0,0,0,0,0,0,0,0,0,0,0,0,0,0,0,0,0,0,0,0,0,0,0,0,0,0,0,0,0,0,0,0,0,0,0,0,0,0,0,0,0,0,0,0,0,0,0,0,0,0,0,0,0,0,0,0,0,0,0,0,0,0,0,0,0,0,0,0,0,0,0,0,0,0,0,0,0,0,0,0,0,0,0,0,0,0,0,0,0,0,0,0,0,0,0,0,0,0,0,0,0,0,0,0,0,0,0,0,0,0,0,0,0,0,0,0,0,0,0,0,0,0,0,0,0,0,0,0,0,0,0,0,0,0,0,0],"sum_hessian":[3.04E2,2.31E2,7.3E1,1.84E2,4.7E1,1.5E1,5.8E1,1.82E2,2E0,1E0,4.6E1,1.3E1,2E0,2E0,5.6E1,3.1E1,1.51E2,2.5E1,2.1E1,4E0,9E0,5E0,5.1E1,2E1,1.1E1,1E0,1.5E2,3E0,2.2E1,1E0,2E1,1E0,3E0,1E0,8E0,3E1,2.1E1,3E0,1.7E1,8E0,3E0,1.3E1,1.37E2,2E0,2E1,1.1E1,9E0,1E0,7E0,2.9E1,1E0,2E0,1.5E1,1E0,7E0,1E0,2E0,1.1E1,2E0,1E1,1.27E2,1.2E1,8E0,1E1,1E0,4E0,5E0,6E0,2.3E1,1E0,1E0,4E0,7E0,1E0,9E0,7E1,5.7E1,5E0,7E0,1E0,7E0,4E0,6E0,8E0,1E0,7E0,6.3E1,5E0,5.2E1,1E0,4E0,2E0,5E0,5E0,2E0,1E0,7E0,2E0,5E0,6E1,3E0,1E0,4E0,5.1E1,1E0,1E0,4E0,2E0,3E0,5.9E1,1E0,1E0,2E0,4.7E1,4E0,2E0,2E0,1E0,1E0,1E0,5.8E1,2.5E1,2.2E1,2E0,2E0,5.3E1,5E0,3E0,2.2E1,4E0,1.8E1,4E0,1E0,1E0,2E0,1.6E1,6E0,1E0,3E0,1.1E1,7E0,1E0,1E0,8E0,8E0,7E0,4E0,2E0,5E0],"tree_param":{"num_deleted":"0","num_feature":"12","num_nodes":"149","size_leaf_vector":"1"}},{"base_weights":[-4.041719E-1,-1.3990295E1,3.691979E1,-1.7620308E1,4.750059E0,1.0922913E1,3.2935093E1,-1.6979113E1,-8.537164E0,7.909441E0,2.2271397E0,1.9609318E1,3.709084E1,-2.1694407E1,-1.44406805E1,-2.770165E0,9.07489E0,2.3338518E1,1.2987368E0,1.11291065E1,3.4079063E1,-1.7389374E0,-2.2696604E1,-1.4940775E1,1.7073566E0,-3.1733317E0,-1.0420074E0,2.1982452E1,4.0161285E0,1.0118555E1,4.6944904E0,2.331018E1,6.0986524E0,-1.7852525E0,2.0866401E0,-2.8270515E1,-1.8226019E1,-1.6359266E1,-1.09551115E1,-3.4463773E0,8.481038E-1,4.2397346E0,1.1144317E0,5.0971746E0,5.7974243E-1,-8.2034546E-1,2.5603657E0,4.3254333E0,1.6746134E0,-1.9769316E1,-6.20843E0,-2.476625E1,-1.5706451E1,-1.4417693E1,-2.517598E1,-5.3254533E0,-1.3078908E1,-1.1621612E-1,-3.7062683E0,-3.5009584E-1,1.2996383E0,9.5525694E-1,3.7062645E-1,1.8442261E-1,-7.9521485E-2,-4.364753E0,-1.2130663E1,-1.591527E0,-5.4631987E0,-2.910137E0,-7.6760406E0,-5.953716E0,-1.5686824E1,2.1841171E-1,-2.7310251E1,-6.1467795E0,-1.0863241E0,-1.3718095E1,1.3790192E-1,-1.9483643E0,-7.4312747E-1,5.194005E-1,2.1320434E0,-2.6010358E0,-8.731307E-1,-1.6430463E0,1.9283493E-1,2.3753662E0,-8.068553E0,-1.8776115E1,-1.199185E1,-4.974331E0,-3.318419E-1,-1.1317681E0,-1.7521393E-1,-4.233658E-2,-2.3467606E-1,-7.7810884E0,-1.6978949E1,-4.4716653E-1,8.30597E-3,-5.6097716E-2,7.159627E-1,4.3384293E-1,3.8432617E-2,7.4473575E-2,5.312448E-1,-7.156021E-1,-1.753375E0,-3.3506623E-1,-3.2732882E0,-8.999807E0,-1.5442385E1,-1.226181E-1,-8.485369E0,-1.8648169E1,-8.14386E0,7.9780275E-1,2.6074829E-2,-1.874829E0,-1.0774813E1,-1.0225895E1,-3.6964107E0,-9.073589E0,-3.2126617E-1,-8.635147E-1,-3.3145046E0,-3.5951722E-1,-1.6062634E0,3.7690736E-2,1.5068771E-1,-7.356749E-1,-1.7978668E-1,-1.2159255E1,-1.18396E0,-3.062755E-1,-1.8791335E0,-3.7041977E-1,-1.6570345E0,5.4696962E-2,-4.5421347E-1,-6.047223E-1,-2.1385424E0,2.0781006E-1,-5.0971985E-1,-1.0200104E-1,-1.3823395E-2],"categories":[],"categories_nodes":[],"categories_segments":[],"categories_sizes":[],"default_left":[0,0,0,0,0,0,0,0,0,0,0,0,0,0,0,0,0,0,0,0,0,0,0,0,0,0,0,0,0,0,0,0,0,0,0,0,0,0,0,0,0,0,0,0,0,0,0,0,0,0,0,0,0,0,0,0,0,0,0,0,0,0,0,0,0,0,0,0,0,0,0,0,0,0,0,0,0,0,0,0,0,0,0,0,0,0,0,0,0,0,0,0,0,0,0,0,0,0,0,0,0,0,0,0,0,0,0,0,0,0,0,0,0,0,0,0,0,0,0,0,0,0,0,0,0,0,0,0,0,0,0,0,0,0,0,0,0,0,0,0,0,0,0,0,0,0,0],"id":19,"left_children":[1,3,5,7,9,-1,11,13,-1,-1,15,17,19,21,23,25,27,29,-1,-1,31,33,35,37,-1,-1,39,41,43,45,-1,47,-1,-1,-1,49,51,53,55,57,59,-1,-1,61,63,-1,-1,-1,-1,65,-1,67,69,71,73,75,77,-1,79,-1,81,-1,-1,-1,-1,-1,83,-1,-1,-1,85,87,89,-1,91,93,95,97,-1,99,-1,101,103,-1,-1,-1,-1,105,107,109,111,-1,-1,-1,-1,-1,-1,113,115,-1,-1,-1,117,-1,-1,-1,-1,-1,-1,-1,-1,119,121,-1,123,125,127,129,-1,131,133,135,-1,137,-1,-1,-1,-1,-1,-1,-1,-1,139,141,143,-1,-1,-1,-1,-1,145,-1,-1,-1,-1,-1,-1],"loss_changes":[1.5010747E5,1.4845715E4,6.4879062E3,2.9514766E3,3.6906956E3,0E0,3.2045625E3,1.8412227E3,0E0,0E0,1.2228491E3,6.698125E2,2.29825E3,1.1804902E3,1.6193672E3,5.574536E2,8.911599E2,5.120044E2,0E0,0E0,1.3045703E2,6.2006744E2,9.300215E2,4.879121E2,0E0,0E0,9.3813416E1,1.8989014E1,4.1623657E1,4.4197815E2,0E0,3.6526855E1,0E0,0E0,0E0,9.6118945E2,1.8775977E2,1.0920742E3,3.3686133E2,3.9284363E0,1.8430443E1,0E0,0E0,1.4530792E0,2.6238449E0,0E0,0E0,0E0,0E0,3.2010693E2,0E0,6.0740576E2,1.8608887E2,6.800215E2,8.2573047E2,3.1621399E1,2.242085E2,0E0,8.360748E-1,0E0,6.036829E0,0E0,0E0,0E0,0E0,0E0,9.87749E1,0E0,0E0,0E0,1.1610278E2,2.1292688E2,4.8256055E2,0E0,5.8588477E2,1.6652618E1,3.9501095E-1,3.131587E2,0E0,5.577159E0,0E0,1.4049603E0,3.4253387E0,0E0,0E0,0E0,0E0,2.9876022E0,3.4572388E1,2.1938086E2,1.8107031E2,0E0,0E0,0E0,0E0,0E0,0E0,4.3600525E1,5.4599854E1,0E0,0E0,0E0,1.5388179E-1,0E0,0E0,0E0,0E0,0E0,0E0,0E0,0E0,2.2008972E2,2.049646E2,0E0,1.7769592E1,2.7669678E1,1.1483582E1,5.8672905E-2,0E0,2.0008873E1,1.847738E2,4.285034E1,0E0,1.5919189E1,0E0,0E0,0E0,0E0,0E0,0E0,0E0,0E0,6.966786E-1,2.2644043E0,1.6763529E1,0E0,0E0,0E0,0E0,0E0,1.1430901E-1,0E0,0E0,0E0,0E0,0E0,0E0],"parents":[2147483647,0,0,1,1,2,2,3,3,4,4,6,6,7,7,10,10,11,11,12,12,13,13,14,14,15,15,16,16,17,17,20,20,21,21,22,22,23,23,26,26,27,27,28,28,29,29,31,31,35,35,36,36,37,37,38,38,39,39,40,40,43,43,44,44,49,49,51,51,52,52,53,53,54,54,55,55,56,56,58,58,60,60,66,66,70,70,71,71,72,72,74,74,75,75,76,76,77,77,79,79,81,81,82,82,87,87,88,88,89,89,90,90,97,97,98,98,102,102,111,111,112,112,114,114,115,115,116,116,117,117,119,119,120,120,121,121,123,123,132,132,133,133,134,134,140,140],"right_children":[2,4,6,8,10,-1,12,14,-1,-1,16,18,20,22,24,26,28,30,-1,-1,32,34,36,38,-1,-1,40,42,44,46,-1,48,-1,-1,-1,50,52,54,56,58,60,-1,-1,62,64,-1,-1,-1,-1,66,-1,68,70,72,74,76,78,-1,80,-1,82,-1,-1,-1,-1,-1,84,-1,-1,-1,86,88,90,-1,92,94,96,98,-1,100,-1,102,104,-1,-1,-1,-1,106,108,110,112,-1,-1,-1,-1,-1,-1,114,116,-1,-1,-1,118,-1,-1,-1,-1,-1,-1,-1,-1,120,122,-1,124,126,128,130,-1,132,134,136,-1,138,-1,-1,-1,-1,-1,-1,-1,-1,140,142,144,-1,-1,-1,-1,-1,146,-1,-1,-1,-1,-1,-1],"split_conditions":[1.574E3,9.465E2,5.5E0,1.8051E3,8.69E1,1.0922913E1,3.37275E3,4.8125E1,-8.537164E0,7.909441E0,1.53425E2,1.08E1,1.2216E3,2.225E2,2.17675E2,9.9E0,1.0841E3,8.9E1,1.2987368E0,1.11291065E1,2.107E3,1.2E0,1.025E0,7.6125E1,1.7073566E0,-3.1733317E0,1.449E2,1.2975E1,1.015E2,1.48E1,4.6944904E0,2.1083E3,6.0986524E0,-1.7852525E0,2.0866401E0,9.5E0,-2.375E0,7.75E-1,7.625E1,1.12E1,8.727E2,4.2397346E0,1.1144317E0,9.06E1,1.3425E1,-8.2034546E-1,2.5603657E0,4.3254333E0,1.6746134E0,2.06E1,-6.20843E0,0E0,2.025E0,1.418E2,4.86E1,3.652E2,1.3425E1,-1.1621612E-1,1.01E1,-3.5009584E-1,1.01E1,9.5525694E-1,3.7062645E-1,1.8442261E-1,-7.9521485E-2,-4.364753E0,2.798E2,-1.591527E0,-5.4631987E0,-2.910137E0,1.3E2,3.046E2,3.171E2,2.1841171E-1,1.1E1,1.05E0,9.75E-1,3.419E2,1.3790192E-1,1.509E2,-7.4312747E-1,1.21E1,1.288E3,-2.6010358E0,-8.731307E-1,-1.6430463E0,1.9283493E-1,7.5E-2,4.102E2,3.96E1,2.00675E2,-4.974331E0,-3.318419E-1,-1.1317681E0,-1.7521393E-1,-4.233658E-2,-2.3467606E-1,2.054E2,7.331E2,-4.4716653E-1,8.30597E-3,-5.6097716E-2,1.3425E1,4.3384293E-1,3.8432617E-2,7.4473575E-2,5.312448E-1,-7.156021E-1,-1.753375E0,-3.3506623E-1,-3.2732882E0,3.077E2,5.06E1,-1.226181E-1,1.87475E2,2.31E2,1.297E2,4.59E1,2.6074829E-2,1.4545E2,2.006E2,2.5E-2,-3.6964107E0,5.135E1,-3.2126617E-1,-8.635147E-1,-3.3145046E0,-3.5951722E-1,-1.6062634E0,3.7690736E-2,1.5068771E-1,-7.356749E-1,4.88E1,3.3E1,1.25E-1,-3.062755E-1,-1.8791335E0,-3.7041977E-1,-1.6570345E0,5.4696962E-2,1E-1,-6.047223E-1,-2.1385424E0,2.0781006E-1,-5.0971985E-1,-1.0200104E-1,-1.3823395E-2],"split_indices":[5,4,8,11,3,0,4,2,0,0,2,8,10,11,1,0,9,1,0,0,9,0,0,3,0,0,2,0,1,0,0,10,0,0,0,8,7,0,3,0,9,0,0,1,0,0,0,0,0,3,0,2,0,1,2,9,0,0,8,0,8,0,0,0,0,0,11,0,0,0,1,9,11,0,8,0,0,9,0,1,0,0,5,0,0,0,0,0,9,3,1,0,0,0,0,0,0,10,10,0,0,0,0,0,0,0,0,0,0,0,0,10,3,0,1,5,2,1,0,1,1,0,0,2,0,0,0,0,0,0,0,0,2,5,0,0,0,0,0,0,0,0,0,0,0,0,0],"split_type":[0,0,0,0,0,0,0,0,0,0,0,0,0,0,0,0,0,0,0,0,0,0,0,0,0,0,0,0,0,0,0,0,0,0,0,0,0,0,0,0,0,0,0,0,0,0,0,0,0,0,0,0,0,0,0,0,0,0,0,0,0,0,0,0,0,0,0,0,0,0,0,0,0,0,0,0,0,0,0,0,0,0,0,0,0,0,0,0,0,0,0,0,0,0,0,0,0,0,0,0,0,0,0,0,0,0,0,0,0,0,0,0,0,0,0,0,0,0,0,0,0,0,0,0,0,0,0,0,0,0,0,0,0,0,0,0,0,0,0,0,0,0,0,0,0,0,0],"sum_hessian":[2.94E2,2.16E2,7.8E1,1.81E2,3.5E1,8E0,7E1,1.79E2,2E0,1E0,3.4E1,1.8E1,5.2E1,6E1,1.19E2,2E1,1.4E1,1.3E1,5E0,3E0,4.9E1,3E0,5.7E1,1.17E2,2E0,1E0,1.9E1,3E0,1.1E1,4E0,9E0,9E0,4E1,2E0,1E0,2.3E1,3.4E1,8.4E1,3.3E1,8E0,1.1E1,2E0,1E0,8E0,3E0,1E0,3E0,7E0,2E0,1.3E1,1E1,7E0,2.7E1,7.1E1,1.3E1,1E1,2.3E1,1E0,7E0,1E0,1E1,6E0,2E0,2E0,1E0,6E0,7E0,3E0,4E0,2.2E1,5E0,1E1,6.1E1,1E0,1.2E1,8E0,2E0,2.2E1,1E0,3E0,4E0,6E0,4E0,4E0,3E0,4E0,1E0,2E0,8E0,3.1E1,3E1,1.1E1,1E0,7E0,1E0,1E0,1E0,9E0,1.3E1,2E0,1E0,1E0,5E0,3E0,1E0,1E0,1E0,4E0,4E0,1E0,3E1,1.8E1,1.2E1,1E0,8E0,1E1,3E0,4E0,1E0,4E0,1.4E1,8E0,4E0,7E0,1E0,1E0,9E0,1E0,2E0,1E0,3E0,1E0,3E0,1.2E1,2E0,1E0,7E0,1E0,6E0,1E0,2E0,1E0,1.1E1,1E0,1E0,1E0,1E0],"tree_param":{"num_deleted":"0","num_feature":"12","num_nodes":"147","size_leaf_vector":"1"}},{"base_weights":[5.863701E-1,-1.0525378E1,3.7834785E1,-1.436591E1,6.824732E0,5.975167E1,3.2071316E1,-2.4424522E1,-1.280632E1,7.23714E0,4.9145346E0,4.1696777E1,2.3494884E1,4.840631E0,7.780928E0,-1.9572004E1,-8.817586E0,-2.3177267E1,-1.1835079E1,-2.7119098E0,8.5522375E0,4.6922752E1,1.037793E1,-8.529109E0,-2.2318203E1,-1.0648915E1,-5.0449834E0,1.9092757E0,-1.2062213E1,-2.9035978E0,-2.928279E-1,4.237943E0,7.0223885E0,5.0045464E1,1.5995606E0,4.7443116E-1,2.171941E0,-1.1378668E1,4.8608857E-1,-1.0907918E0,-2.4010677E1,-2.3423197E0,-2.9266968E0,-1.2750959E1,-4.411547E0,-4.4946137E-1,6.768799E-1,7.6031036E0,1.7825012E0,3.4645734E0,9.4536915E0,-5.787227E-1,-2.1286056E0,-2.2979078E0,-2.6597694E1,-6.3411224E-1,-1.1219543E-1,-2.3596357E1,-1.2165822E1,-7.3730674E0,1.5138584E0,-3.2033753E-1,1.1708306E0,2.6422608E0,8.46316E0,-7.506189E-1,9.0444624E-1,-1.3963856E1,-5.0302835E0,-1.2429019E0,-5.0848947E0,-1.0574369E1,-1.4678223E1,-1.9726101E0,-3.8073578E0,1.651245E-1,1.9423707E0,5.159558E-1,9.1049194E-2,5.691595E0,1.8131459E0,-2.697319E0,-7.017325E-1,-1.0893034E1,3.0036032E-1,-7.324611E0,-1.5533968E1,-9.597473E-1,-9.0507567E-1,-5.1329955E-2,6.0753938E-2,6.845032E-2,3.785286E-1,2.524231E0,1.3447611E0,-1.0101791E1,-2.3994629E1,-2.8024215E-1,-7.9958854E0,-2.754553E0,-8.706166E0,-2.9019877E-1,1.0898407E-1,3.200293E0,-7.276672E-2,-1.4089009E1,-8.80224E0,-1.2155379E0,-4.6284237E0,-3.0658677E-1,-1.508526E0,-2.4404678E0,-2.406924E0,6.02948E-1,1.5422852E-1,-7.965561E0,-1.7261608E1,-1.1025792E1,-7.151189E0,-6.79936E-1,1.9014496E-1,-1.7813519E0,-2.8329468E0,-1.938639E1,-5.1333923E0,-7.7304077E0,-3.4293718E0,1.895874E0,-7.9577737E0,-6.1661315E-1,-3.8282167E-2,-8.33951E-1,-3.4991593E0,-1.4854585E0,1.7644349E-1,-2.2746632E0,-3.6588604E0,2.624003E-1,5.776851E-1,-8.338185E0,-9.938558E-1,3.917048E-1,-9.6529007E-1,6.8144225E-2,-1.2321472E-3,-1.1360483E0,-1.7847422E0,-2.939566E-1,4.0523376E-2],"categories":[],"categories_nodes":[],"categories_segments":[],"categories_sizes":[],"default_left":[0,0,0,0,0,0,0,0,0,0,0,0,0,0,0,0,0,0,0,0,0,0,0,0,0,0,0,0,0,0,0,0,0,0,0,0,0,0,0,0,0,0,0,0,0,0,0,0,0,0,0,0,0,0,0,0,0,0,0,0,0,0,0,0,0,0,0,0,0,0,0,0,0,0,0,0,0,0,0,0,0,0,0,0,0,0,0,0,0,0,0,0,0,0,0,0,0,0,0,0,0,0,0,0,0,0,0,0,0,0,0,0,0,0,0,0,0,0,0,0,0,0,0,0,0,0,0,0,0,0,0,0,0,0,0,0,0,0,0,0,0,0,0,0,0,0,0,0,0],"id":20,"left_children":[1,3,5,7,9,11,13,15,17,-1,19,21,-1,-1,-1,23,-1,25,27,29,31,33,35,37,39,41,-1,-1,43,-1,45,-1,47,49,-1,-1,-1,51,-1,-1,53,-1,55,57,59,-1,61,63,65,-1,-1,-1,-1,-1,67,-1,-1,69,71,73,-1,-1,75,77,79,-1,-1,81,-1,-1,-1,83,85,-1,87,89,91,-1,-1,93,-1,-1,-1,95,-1,97,99,101,-1,-1,-1,-1,-1,103,-1,105,107,-1,109,-1,111,-1,-1,113,-1,115,117,-1,-1,-1,-1,119,-1,-1,-1,121,123,125,127,-1,-1,-1,129,131,133,135,-1,137,139,-1,-1,-1,-1,-1,-1,-1,141,143,-1,145,147,-1,-1,-1,-1,-1,-1,-1,-1],"loss_changes":[1.2249727E5,1.5290512E4,6.673258E3,2.6207422E3,2.6586763E3,1.2651402E4,1.456125E3,2.1809326E3,1.3776152E3,0E0,1.1606453E3,1.4770977E3,0E0,0E0,0E0,4.7681738E2,0E0,7.42479E2,9.3181055E2,4.816043E2,5.2645264E2,7.005508E2,1.8931183E1,2.2724802E2,3.0346582E2,1.0467206E2,0E0,0E0,7.394238E2,0E0,3.1427563E1,0E0,6.8605225E1,3.5234375E2,0E0,0E0,0E0,2.9301147E0,0E0,0E0,4.768164E1,0E0,3.0013409E0,5.886875E2,6.1778076E2,0E0,1.4857396E1,8.00365E1,1.1119824E2,0E0,0E0,0E0,0E0,0E0,2.6450195E0,0E0,0E0,3.9833838E2,3.7656836E2,1.3683868E2,0E0,0E0,6.6627483E0,2.5117226E0,6.1378174E1,0E0,0E0,9.366272E0,0E0,0E0,0E0,3.5352637E2,1.9456836E2,0E0,2.94402E1,5.568768E-1,1.2919178E0,0E0,0E0,5.7336395E1,0E0,0E0,0E0,6.1803516E2,0E0,1.349057E1,5.543164E1,5.87959E0,0E0,0E0,0E0,0E0,0E0,1.334536E1,0E0,2.905127E2,2.3051758E1,0E0,1.6610931E1,0E0,1.7041837E2,0E0,0E0,7.5457E-1,0E0,2.121919E2,1.5243799E2,0E0,0E0,0E0,0E0,2.6669518E1,0E0,0E0,0E0,7.350009E1,1.839502E2,5.9762695E2,2.9967883E2,0E0,0E0,0E0,7.4674225E0,5.501538E1,7.580431E1,4.11125E2,0E0,8.924023E0,8.708252E1,0E0,0E0,0E0,0E0,0E0,0E0,0E0,1.6961893E2,1.1490215E-1,0E0,5.1442627E1,3.1303594E0,0E0,0E0,0E0,0E0,0E0,0E0,0E0,0E0],"parents":[2147483647,0,0,1,1,2,2,3,3,4,4,5,5,6,6,7,7,8,8,10,10,11,11,15,15,17,17,18,18,19,19,20,20,21,21,22,22,23,23,24,24,25,25,28,28,30,30,32,32,33,33,37,37,40,40,42,42,43,43,44,44,46,46,47,47,48,48,54,54,57,57,58,58,59,59,62,62,63,63,64,64,67,67,71,71,72,72,74,74,75,75,76,76,79,79,83,83,85,85,86,86,87,87,93,93,95,95,96,96,98,98,100,100,103,103,105,105,106,106,111,111,115,115,116,116,117,117,118,118,122,122,123,123,124,124,125,125,127,127,128,128,136,136,137,137,139,139,140,140],"right_children":[2,4,6,8,10,12,14,16,18,-1,20,22,-1,-1,-1,24,-1,26,28,30,32,34,36,38,40,42,-1,-1,44,-1,46,-1,48,50,-1,-1,-1,52,-1,-1,54,-1,56,58,60,-1,62,64,66,-1,-1,-1,-1,-1,68,-1,-1,70,72,74,-1,-1,76,78,80,-1,-1,82,-1,-1,-1,84,86,-1,88,90,92,-1,-1,94,-1,-1,-1,96,-1,98,100,102,-1,-1,-1,-1,-1,104,-1,106,108,-1,110,-1,112,-1,-1,114,-1,116,118,-1,-1,-1,-1,120,-1,-1,-1,122,124,126,128,-1,-1,-1,130,132,134,136,-1,138,140,-1,-1,-1,-1,-1,-1,-1,142,144,-1,146,148,-1,-1,-1,-1,-1,-1,-1,-1],"split_conditions":[1.8945E2,1.3805E2,1.8549E3,1.025E2,8.69E1,1.4463E3,2.1611E3,6.428E2,2.553E2,7.23714E0,1.4125E3,2.68825E2,2.3494884E1,4.840631E0,7.780928E0,7.75E-1,-8.817586E0,2E2,2.225E2,9.9E0,1.47E3,1.4436E3,1.6325E1,6E-1,7.47E1,1.97E1,-5.0449834E0,1.9092757E0,7.4475E2,-2.9035978E0,1.449E2,4.237943E0,2.1493E3,2.005E2,1.5995606E0,4.7443116E-1,2.171941E0,5E0,4.8608857E-1,-1.0907918E0,9.75E-1,-2.3423197E0,4.75E-1,1.495E1,1.52125E2,-4.4946137E-1,8.727E2,1.813E2,1.48E1,3.4645734E0,9.4536915E0,-5.787227E-1,-2.1286056E0,-2.2979078E0,5E0,-6.3411224E-1,-1.1219543E-1,0E0,2.0045E2,9.3E0,1.5138584E0,-3.2033753E-1,8.78E2,9.4075E1,1.0962E3,-7.506189E-1,9.0444624E-1,1.1E0,-5.0302835E0,-1.2429019E0,-5.0848947E0,7.607E2,4.32E1,-1.9726101E0,7.706E2,1.21E1,5.6E1,5.159558E-1,9.1049194E-2,1.8655E2,1.8131459E0,-2.697319E0,-7.017325E-1,6.651E2,3.0036032E-1,2.5E-2,3.52E2,1.19E1,-9.0507567E-1,-5.1329955E-2,6.0753938E-2,6.845032E-2,3.785286E-1,1.6335E2,1.3447611E0,4.3E1,5.6E0,-2.8024215E-1,3.048E2,-2.754553E0,2.00675E2,-2.9019877E-1,1.0898407E-1,1.50025E2,-7.276672E-2,3.223E2,1.18E2,-1.2155379E0,-4.6284237E0,-3.0658677E-1,-1.508526E0,2.00625E2,-2.406924E0,6.02948E-1,1.5422852E-1,1.375E0,7.6275E1,7.1575E1,1.5E2,-6.79936E-1,1.9014496E-1,-1.7813519E0,1.57275E2,6E-1,1.525E0,3.103E2,-3.4293718E0,2E2,5.7675E2,-6.1661315E-1,-3.8282167E-2,-8.33951E-1,-3.4991593E0,-1.4854585E0,1.7644349E-1,-2.2746632E0,2.99E2,7.5E-2,5.776851E-1,7.625E1,4.875E0,3.917048E-1,-9.6529007E-1,6.8144225E-2,-1.2321472E-3,-1.1360483E0,-1.7847422E0,-2.939566E-1,4.0523376E-2],"split_indices":[2,2,11,1,3,11,9,9,10,0,4,1,0,0,0,0,0,1,11,0,4,11,0,0,1,3,0,0,5,0,2,0,11,2,0,0,0,5,0,0,0,0,0,2,1,0,9,7,0,0,0,0,0,0,8,0,0,2,1,8,0,0,10,1,11,0,0,0,0,0,0,9,3,0,11,0,1,0,0,6,0,0,0,10,0,0,11,0,0,0,0,0,0,2,0,2,0,0,10,0,1,0,0,1,0,11,5,0,0,0,0,1,0,0,0,0,3,2,5,0,0,0,1,0,0,11,0,4,5,0,0,0,0,0,0,0,10,0,0,3,0,0,0,0,0,0,0,0,0],"split_type":[0,0,0,0,0,0,0,0,0,0,0,0,0,0,0,0,0,0,0,0,0,0,0,0,0,0,0,0,0,0,0,0,0,0,0,0,0,0,0,0,0,0,0,0,0,0,0,0,0,0,0,0,0,0,0,0,0,0,0,0,0,0,0,0,0,0,0,0,0,0,0,0,0,0,0,0,0,0,0,0,0,0,0,0,0,0,0,0,0,0,0,0,0,0,0,0,0,0,0,0,0,0,0,0,0,0,0,0,0,0,0,0,0,0,0,0,0,0,0,0,0,0,0,0,0,0,0,0,0,0,0,0,0,0,0,0,0,0,0,0,0,0,0,0,0,0,0,0,0],"sum_hessian":[2.94E2,2.27E2,6.7E1,1.86E2,4.1E1,1.2E1,5.5E1,2.3E1,1.63E2,1E0,4E1,1.1E1,1E0,4.6E1,9E0,2.1E1,2E0,1.2E1,1.51E2,1.3E1,2.7E1,9E0,2E0,5E0,1.6E1,5E0,7E0,1E0,1.5E2,1E0,1.2E1,1E0,2.6E1,8E0,1E0,1E0,1E0,4E0,1E0,2E0,1.4E1,3E0,2E0,1.37E2,1.3E1,3E0,9E0,2.3E1,3E0,2E0,6E0,1E0,3E0,4E0,1E1,1E0,1E0,5E0,1.32E2,1.1E1,2E0,1E0,8E0,4E0,1.9E1,1E0,2E0,3E0,7E0,2E0,3E0,8.4E1,4.8E1,4E0,7E0,4E0,4E0,3E0,1E0,1E1,9E0,2E0,1E0,8.2E1,2E0,6E0,4.2E1,3E0,4E0,1E0,3E0,1E0,3E0,5E0,5E0,7.9E1,3E0,1E0,5E0,3.7E1,5E0,2E0,1E0,4E0,1E0,1.7E1,6.2E1,1E0,2E0,1E0,4E0,3E0,2E0,3E0,1E0,7E0,1E1,2.4E1,3.8E1,2E0,1E0,4E0,3E0,8E0,2E0,1.9E1,5E0,3E0,3.5E1,2E0,1E0,1E0,7E0,1E0,1E0,7E0,1.2E1,2E0,1E0,3.3E1,2E0,3E0,9E0,1E0,1E0,2.1E1,1.2E1,1E0,1E0],"tree_param":{"num_deleted":"0","num_feature":"12","num_nodes":"149","size_leaf_vector":"1"}},{"base_weights":[4.4355246E-1,-9.905864E0,2.8965103E1,-1.2852041E1,3.719243E0,2.0615685E1,3.638166E1,-1.231473E1,-6.784905E0,6.621979E0,1.7669693E0,2.1904987E1,7.4674315E0,7.0865585E1,2.8211979E1,-1.886149E1,-1.1097859E1,-2.7478554E0,7.5057445E0,1.0731526E1,2.3409513E1,5.9316343E-1,1.9873315E0,9.140137E1,2.2129605E0,1.5696023E1,3.277296E1,-1.3908325E1,-3.031889E1,-2.0771772E1,-1.018286E1,-2.1941586E0,-4.6450323E-1,3.8777204E0,5.1235886E0,4.2673278E-1,2.0185382E0,2.4133114E1,8.852742E0,1.8690994E1,1.4635937E0,1.7973063E1,6.17592E-1,4.637227E0,4.2221504E1,-1.7656427E1,-1.4270786E0,-5.8522825E0,-4.8289275E-1,-2.4089365E1,-2.7892048E0,1.7469876E0,-1.0405582E1,8.6384153E-1,-1.0549113E0,8.243494E0,3.3966625E0,2.4992268E1,1.469266E0,3.922949E-1,1.8651544E0,3.208413E0,9.157422E-1,7.667328E0,2.119812E0,-1.034554E0,-3.323762E0,-1.659039E0,-4.4968505E0,-6.085873E-1,-1.0265991E-1,-1.05802555E1,1.1495907E0,-2.5232177E0,6.937527E-1,2.6008943E-1,1.6216977E0,3.9882996E0,2.9231772E-1,5.7013574E0,2.1360695E1,-1.0771813E1,2.663202E-1,-5.258753E-1,-8.946228E-1,1.0863403E0,1.6241455E-1,4.36055E0,2.832538E-1,1.4112365E-1,-6.658264E-2,1.429656E0,4.0652585E0,-1.2046103E1,-8.872393E0,8.453308E-2,-1.5243326E0,2.2149856E-1,1.869751E-2,-4.696686E-2,5.7996523E-2,8.357884E-1,3.0520588E-1,-7.06838E0,-1.3024536E1,-7.5508394E0,-1.7422163E1,-8.1669316E-2,-3.0703554E-1,-2.3500214E0,-1.3754247E1,-1.35071535E1,-4.6282167E0,-1.2163251E1,-6.3025846E0,-2.0521383E1,9.9718325E-2,-6.012609E0,2.5150878E0,-3.1310418E0,-5.0172174E-1,-1.681721E1,-1.2134154E1,-3.5029296E-2,-9.6598136E-1,-8.8415253E-1,-2.4487023E0,-9.798129E0,-4.946416E0,-1.5400665E0,-4.077903E0,-2.740036E-1,-1.3277125E0,6.717926E-1,2.4009196E-1,-5.8670443E-1,-1.752541E1,-2.9518204E0,-1.2706135E1,-2.2414443E0,-5.7492065E-1,5.451889E-1,-5.513749E0,6.2351838E-2,-1.1283875E-3,-3.094274E0,-7.424556E-1,-4.5942232E-2,-6.3845116E-1,-6.7993956E0,-1.313761E1,-5.2347064E-1,2.1866505E-1,5.285808E-1,-2.2881104E-1,-8.825836E-1,-5.995635E0,-1.7144408E0,-5.876512E-1,-2.2624831E0,-5.6400436E-1,1.18885346E-1,-2.7930918E-1,-6.02593E-1,-1.1096102E0],"categories":[],"categories_nodes":[],"categories_segments":[],"categories_sizes":[],"default_left":[0,0,0,0,0,0,0,0,0,0,0,0,0,0,0,0,0,0,0,0,0,0,0,0,0,0,0,0,0,0,0,0,0,0,0,0,0,0,0,0,0,0,0,0,0,0,0,0,0,0,0,0,0,0,0,0,0,0,0,0,0,0,0,0,0,0,0,0,0,0,0,0,0,0,0,0,0,0,0,0,0,0,0,0,0,0,0,0,0,0,0,0,0,0,0,0,0,0,0,0,0,0,0,0,0,0,0,0,0,0,0,0,0,0,0,0,0,0,0,0,0,0,0,0,0,0,0,0,0,0,0,0,0,0,0,0,0,0,0,0,0,0,0,0,0,0,0,0,0,0,0,0,0,0,0,0,0,0,0,0,0,0,0,0,0],"id":21,"left_children":[1,3,5,7,9,11,13,15,-1,-1,17,19,21,23,25,27,29,31,33,35,37,-1,-1,39,-1,41,43,45,47,49,51,-1,53,-1,55,-1,-1,57,59,-1,-1,61,-1,-1,63,65,-1,-1,-1,67,69,-1,71,-1,73,75,77,79,-1,-1,-1,-1,-1,-1,-1,-1,-1,-1,-1,-1,-1,81,-1,83,85,-1,-1,87,89,-1,91,93,-1,-1,95,97,99,101,-1,-1,-1,-1,-1,103,105,-1,107,-1,-1,-1,-1,-1,-1,109,111,113,115,-1,-1,117,119,121,123,125,127,129,-1,131,133,-1,-1,135,137,-1,-1,-1,-1,139,141,-1,-1,-1,-1,-1,143,-1,145,147,149,-1,151,153,155,-1,-1,-1,-1,-1,-1,157,159,-1,-1,-1,-1,161,163,-1,-1,-1,-1,-1,-1,-1,-1],"loss_changes":[8.64799E4,8.678324E3,4.080043E3,2.0819434E3,2.613809E3,4.975547E2,9.269645E3,1.1848242E3,0E0,0E0,1.0051882E3,3.371582E2,4.3206146E1,7.1258945E3,1.4264824E3,1.0538242E3,1.1162285E3,5.0432733E2,5.029063E2,2.6538452E1,1.02353516E2,0E0,0E0,6.730582E3,0E0,2.3685645E2,9.440039E1,2.6510352E2,6.920542E2,6.487158E2,7.403174E2,0E0,6.757326E1,0E0,5.820517E1,0E0,0E0,1.5664062E2,1.62845E1,0E0,0E0,2.8027344E-1,0E0,0E0,3.7492188E1,1.222251E2,0E0,0E0,0E0,8.043408E1,3.022089E0,0E0,4.85375E2,0E0,4.7966835E1,2.8905945E1,2.0873901E1,9.0456055E1,0E0,0E0,0E0,0E0,0E0,0E0,0E0,0E0,0E0,0E0,0E0,0E0,0E0,3.356494E2,0E0,6.518284E0,1.7009335E0,0E0,0E0,1.378479E0,1.4287122E0,0E0,4.93125E2,2.198789E2,0E0,0E0,4.2638927E0,9.14052E-1,4.863137E-1,2.5805206E0,0E0,0E0,0E0,0E0,0E0,2.878252E2,5.237886E2,0E0,1.4744282E-2,0E0,0E0,0E0,0E0,0E0,0E0,4.408719E2,1.9682812E2,2.2272827E2,4.02729E2,0E0,0E0,1.9331113E2,2.4792981E2,6.862012E1,2.2134521E1,8.110364E1,1.553778E2,2.1076904E1,0E0,3.487378E1,1.5392897E1,0E0,0E0,8.150342E1,2.0409131E2,0E0,0E0,0E0,0E0,3.3603235E2,1.05819885E2,0E0,0E0,0E0,0E0,0E0,9.620422E-2,0E0,4.507129E1,7.606575E0,2.0262207E1,0E0,2.2604721E1,2.3581278E1,6.165918E1,0E0,0E0,0E0,0E0,0E0,0E0,2.0050446E1,2.137793E1,0E0,0E0,0E0,0E0,5.960597E0,1.2035095E1,0E0,0E0,0E0,0E0,0E0,0E0,0E0,0E0],"parents":[2147483647,0,0,1,1,2,2,3,3,4,4,5,5,6,6,7,7,10,10,11,11,12,12,13,13,14,14,15,15,16,16,17,17,18,18,19,19,20,20,23,23,25,25,26,26,27,27,28,28,29,29,30,30,32,32,34,34,37,37,38,38,41,41,44,44,45,45,49,49,50,50,52,52,54,54,55,55,56,56,57,57,71,71,73,73,74,74,77,77,78,78,80,80,81,81,84,84,85,85,86,86,87,87,93,93,94,94,96,96,103,103,104,104,105,105,106,106,109,109,110,110,111,111,112,112,113,113,114,114,115,115,117,117,118,118,121,121,122,122,127,127,128,128,134,134,136,136,137,137,138,138,140,140,141,141,142,142,149,149,150,150,155,155,156,156],"right_children":[2,4,6,8,10,12,14,16,-1,-1,18,20,22,24,26,28,30,32,34,36,38,-1,-1,40,-1,42,44,46,48,50,52,-1,54,-1,56,-1,-1,58,60,-1,-1,62,-1,-1,64,66,-1,-1,-1,68,70,-1,72,-1,74,76,78,80,-1,-1,-1,-1,-1,-1,-1,-1,-1,-1,-1,-1,-1,82,-1,84,86,-1,-1,88,90,-1,92,94,-1,-1,96,98,100,102,-1,-1,-1,-1,-1,104,106,-1,108,-1,-1,-1,-1,-1,-1,110,112,114,116,-1,-1,118,120,122,124,126,128,130,-1,132,134,-1,-1,136,138,-1,-1,-1,-1,140,142,-1,-1,-1,-1,-1,144,-1,146,148,150,-1,152,154,156,-1,-1,-1,-1,-1,-1,158,160,-1,-1,-1,-1,162,164,-1,-1,-1,-1,-1,-1,-1,-1],"split_conditions":[1.574E3,9.2225E2,1.72E1,1.8051E3,8.69E1,2.687E2,1.8549E3,1.5E0,-6.784905E0,6.621979E0,1.4125E3,1.4E1,1.6325E1,1.07E1,2.1424E3,3.254E2,2.553E2,9.9E0,1.47E3,1.579E3,2.1824E3,5.9316343E-1,1.9873315E0,1.8475E1,2.2129605E0,8.8475E1,3.109E2,1.2E0,1.75275E2,6.435E1,2.225E2,-2.1941586E0,1.335E2,3.8777204E0,1.0841E3,4.2673278E-1,2.0185382E0,2.1299E3,1.62E1,1.8690994E1,1.4635937E0,2.133E2,6.17592E-1,4.637227E0,1.8625E1,2.225E2,-1.4270786E0,-5.8522825E0,-4.8289275E-1,5E1,3.3E0,1.7469876E0,1.263E2,8.6384153E-1,1.188E3,1.492E3,1.015E2,2.1045E3,1.469266E0,3.922949E-1,1.8651544E0,3.208413E0,9.157422E-1,7.667328E0,2.119812E0,-1.034554E0,-3.323762E0,-1.659039E0,-4.4968505E0,-6.085873E-1,-1.0265991E-1,7.607E2,1.1495907E0,1.509E2,8.843E2,2.6008943E-1,1.6216977E0,1.1063E3,1.34E1,5.7013574E0,8.4E0,3.416E2,2.663202E-1,-5.258753E-1,1.517E2,1.3425E1,1.21E1,1.3175E1,2.832538E-1,1.4112365E-1,-6.658264E-2,1.429656E0,4.0652585E0,1.513E2,6.323E2,8.453308E-2,1.12E1,2.2149856E-1,1.869751E-2,-4.696686E-2,5.7996523E-2,8.357884E-1,3.0520588E-1,3.389E2,1.625E0,3.223E2,1.2575E1,-8.1669316E-2,-3.0703554E-1,5.4075E1,4.04E1,3.046E2,1.7E0,9.2975E1,2.77E1,3.2525E2,9.9718325E-2,4.14E1,6.33E1,-3.1310418E0,-5.0172174E-1,1.61E1,2.99E2,-3.5029296E-2,-9.6598136E-1,-8.8415253E-1,-2.4487023E0,1.45E0,8.6E0,-1.5400665E0,-4.077903E0,-2.740036E-1,-1.3277125E0,6.717926E-1,7.5E-2,-5.8670443E-1,2.00725E2,2.0045E2,4.32E1,-2.2414443E0,1.625E0,1.23825E2,7.2E1,6.2351838E-2,-1.1283875E-3,-3.094274E0,-7.424556E-1,-4.5942232E-2,-6.3845116E-1,5.64E1,3.758E2,-5.2347064E-1,2.1866505E-1,5.285808E-1,-2.2881104E-1,1.747E2,4.92E1,-1.7144408E0,-5.876512E-1,-2.2624831E0,-5.6400436E-1,1.18885346E-1,-2.7930918E-1,-6.02593E-1,-1.1096102E0],"split_indices":[5,4,0,11,3,1,11,6,0,0,4,0,0,8,11,9,10,0,4,4,10,0,0,0,0,1,7,0,1,3,11,0,2,0,9,0,0,11,0,0,0,2,0,0,0,9,0,0,0,5,0,0,7,0,5,4,1,10,0,0,0,0,0,0,0,0,0,0,0,0,0,9,0,1,9,0,0,10,0,0,8,11,0,0,1,0,0,0,0,0,0,0,0,1,9,0,0,0,0,0,0,0,0,9,0,9,0,0,0,2,7,11,0,1,6,4,0,3,2,0,0,2,10,0,0,0,0,0,8,0,0,0,0,0,0,0,1,1,3,0,0,1,4,0,0,0,0,0,0,2,10,0,0,0,0,1,3,0,0,0,0,0,0,0,0],"split_type":[0,0,0,0,0,0,0,0,0,0,0,0,0,0,0,0,0,0,0,0,0,0,0,0,0,0,0,0,0,0,0,0,0,0,0,0,0,0,0,0,0,0,0,0,0,0,0,0,0,0,0,0,0,0,0,0,0,0,0,0,0,0,0,0,0,0,0,0,0,0,0,0,0,0,0,0,0,0,0,0,0,0,0,0,0,0,0,0,0,0,0,0,0,0,0,0,0,0,0,0,0,0,0,0,0,0,0,0,0,0,0,0,0,0,0,0,0,0,0,0,0,0,0,0,0,0,0,0,0,0,0,0,0,0,0,0,0,0,0,0,0,0,0,0,0,0,0,0,0,0,0,0,0,0,0,0,0,0,0,0,0,0,0,0,0],"sum_hessian":[2.91E2,2.14E2,7.7E1,1.76E2,3.8E1,3.8E1,3.9E1,1.74E2,2E0,1E0,3.7E1,3.4E1,4E0,6E0,3.3E1,2.5E1,1.49E2,2.1E1,1.6E1,5E0,2.9E1,3E0,1E0,4E0,2E0,1E1,2.3E1,1.9E1,6E0,1.1E1,1.38E2,3E0,1.8E1,1E0,1.5E1,1E0,4E0,2.7E1,2E0,3E0,1E0,8E0,2E0,1.7E1,6E0,1E1,9E0,5E0,1E0,9E0,2E0,1E0,1.37E2,1E0,1.7E1,4E0,1.1E1,2.5E1,2E0,1E0,1E0,7E0,1E0,5E0,1E0,2E0,8E0,2E0,7E0,1E0,1E0,1.36E2,1E0,9E0,8E0,1E0,3E0,9E0,2E0,5E0,2E1,1.34E2,2E0,6E0,3E0,4E0,4E0,7E0,2E0,1E0,1E0,4E0,1.6E1,7.7E1,5.7E1,1E0,2E0,3E0,1E0,1E0,3E0,5E0,2E0,1.4E1,6.3E1,5.1E1,6E0,1E0,1E0,9E0,5E0,5.9E1,4E0,9E0,4.2E1,5E0,1E0,5E0,4E0,3E0,2E0,1.4E1,4.5E1,1E0,3E0,3E0,6E0,1E1,3.2E1,2E0,3E0,2E0,3E0,2E0,2E0,1E0,1.3E1,3E0,4.2E1,7E0,3E0,3E0,2.9E1,1E0,1E0,1.2E1,1E0,1E0,2E0,4E0,3.8E1,1E0,2E0,1E0,2E0,3E0,2.6E1,1E0,3E0,3.7E1,1E0,1E0,2E0,6E0,2E1],"tree_param":{"num_deleted":"0","num_feature":"12","num_nodes":"165","size_leaf_vector":"1"}},{"base_weights":[8.5582995E-1,-8.260563E0,2.4192253E1,-1.085619E1,3.3986254E0,3.8311848E1,2.0721869E1,-1.0238098E1,-2.945282E1,6.059114E0,1.6121762E0,2.431808E1,1.9909092E1,1.2176357E1,2.333162E1,-1.5457192E1,-8.944309E0,-3.7045486E1,7.801697E-2,-2.0714889E0,6.284438E0,6.3133135E0,1.00616455E1,2.2487402E1,7.624102E0,2.1547478E1,3.543623E1,-1.8896414E1,-8.150456E0,4.0748215E0,-9.2661915E0,-7.102151E0,-1.9422388E0,-2.4702866E0,-7.862171E-1,3.5481172E0,4.068306E0,-3.2420775E-1,2.0474646E0,7.2819644E-1,4.414475E0,9.066335E0,-6.8619794E-1,1.1307902E1,2.2497238E1,7.271471E0,2.7687948E0,-1.4169394E1,-4.475463E0,-1.5303788E-1,-8.727731E0,-6.0072494E-1,7.7888794E0,-9.428907E0,1.051875E0,7.9041594E-1,-1.2904785E0,7.218457E0,2.4167175E0,6.509058E-1,1.1206467E1,-8.1170225E-1,6.367218E-1,3.0326906E-1,2.1855044E0,2.2097855E0,3.9830155E0,-1.47996645E1,-4.54377E-1,-1.0067326E1,-3.8666077E0,3.8766983E-1,1.5984944E0,-1.8343678E1,-9.082077E0,-2.5406444E0,5.197957E-1,2.379834E-1,1.4149305E0,2.895764E0,1.4322917E-2,9.522086E-1,2.2863922E0,-2.6133127E0,-6.25067E-1,-1.0237198E0,-2.143241E0,-9.393372E-2,-8.138086E-1,-9.091236E-1,-3.5518177E0,-8.843198E0,-3.3912868E0,-1.3689711E0,-7.720972E-1,-2.319336E-3,7.812398E-1,5.27208E-1,8.896362E-2,6.4580075E-2,-6.0927734E-2,-9.068508E0,4.649048E-1,-2.7320558E-1,-3.724602E-1,-4.2972106E-2,2.8122354E-2,1.8566081E-1,5.997055E-2,-1.008625E1,-7.524737E0,-2.495215E-1,2.7172607E-1,-2.0997345E-1,2.76062E-1,-9.510269E0,-2.9995406E0,2.120402E0,-7.9364805E0,-7.472778E-2,1.1239258E-1,-9.827201E0,-1.8240967E0,5.7052307E-2,4.836502E-1,-8.622028E0,-3.0882149E0,-1.3009018E1,-8.659196E0,-4.1277367E-1,-1.0324097E-3,-1.0194385E1,-6.3396025E0,2.762033E-1,-6.240924E0,-6.6140747E0,-2.3759198E0,-9.067322E-1,-9.286345E0,-7.752525E-1,-1.10503845E1,-1.0985168E0,-1.2763907E0,-1.2698199E0,-1.12753145E-1,-1.7514648E-2,-1.4875138E0,-4.4558853E-1,5.0581586E-1,-1.7556919E0,-6.16544E-1,-1.9964985E0,-8.7822527E-1,-2.6867035E-1,-4.2576093E-2],"categories":[],"categories_nodes":[],"categories_segments":[],"categories_sizes":[],"default_left":[0,0,0,0,0,0,0,0,0,0,0,0,0,0,0,0,0,0,0,0,0,0,0,0,0,0,0,0,0,0,0,0,0,0,0,0,0,0,0,0,0,0,0,0,0,0,0,0,0,0,0,0,0,0,0,0,0,0,0,0,0,0,0,0,0,0,0,0,0,0,0,0,0,0,0,0,0,0,0,0,0,0,0,0,0,0,0,0,0,0,0,0,0,0,0,0,0,0,0,0,0,0,